{"learner":{"attributes":{"scikit_learn":"{\"_estimator_type\": \"regressor\"}"},"feature_names":["Precipitation","Wind","Temperature","Humidity","Soil_Moisture","Elevation","Precipitation_RollingMean_3W","Temperature_RollingMean_3W","sin_week","cos_week","Leptospirosis_Lag_1W","Dengue_Chikungunya_Lag_1W","Acute_Bloody_Diarrhea_Cholera_Typhoid_Lag_1W","Population_Density","Water_Access_Index","Spatial_Lag"],"feature_types":["float","float","float","float","float","float","float","float","float","float","float","float","float","float","float","float"],"gradient_booster":{"model":{"cats":{"enc":[],"feature_segments":[],"sorted_idx":[]},"gbtree_model_param":{"num_parallel_tree":"1","num_trees":"100"},"iteration_indptr":[0,1,2,3,4,5,6,7,8,9,10,11,12,13,14,15,16,17,18,19,20,21,22,23,24,25,26,27,28,29,30,31,32,33,34,35,36,37,38,39,40,41,42,43,44,45,46,47,48,49,50,51,52,53,54,55,56,57,58,59,60,61,62,63,64,65,66,67,68,69,70,71,72,73,74,75,76,77,78,79,80,81,82,83,84,85,86,87,88,89,90,91,92,93,94,95,96,97,98,99,100],"tree_info":[0,0,0,0,0,0,0,0,0,0,0,0,0,0,0,0,0,0,0,0,0,0,0,0,0,0,0,0,0,0,0,0,0,0,0,0,0,0,0,0,0,0,0,0,0,0,0,0,0,0,0,0,0,0,0,0,0,0,0,0,0,0,0,0,0,0,0,0,0,0,0,0,0,0,0,0,0,0,0,0,0,0,0,0,0,0,0,0,0,0,0,0,0,0,0,0,0,0,0,0],"trees":[{"base_weights":[6.091572E-8,-8.8749925E-4,1.7124742E-1,4.7439728E-2,-3.5399264E-3,-9.3093544E-2,1.8459596E-1,-6.71333E-2,6.238366E-2,-6.1365135E-2,-1.7094124E-3,1.3275604E-1,3.947378E-1,1.6809355E-2,-4.5631102E-1,6.811308E-2,-2.5217885E-1,-5.723842E-1,-5.4686096E-2,-1.1119831E-2,1.0366713E-2,-3.8982175E-2,1.519399E-1,9.251977E-2,4.7028056E-1,2.4376585E-1,-9.299207E-2,-9.351503E-1,-1.8264635E-1,2.4568047E-1,5.882867E-2,-7.72087E-2,-6.973767E-1,-2.646749E-1,-1.1391107E-1,5.5252247E-2,-8.8370994E-2,-2.7840247E-2,6.4982837E-3,4.269555E-2,-1.8187606E-3,2.737013E-1,5.433227E-2,-4.648791E-2,1.6744027E-1,9.917634E-3,4.821137E-1,1.0154605E-2,4.8816156E-2,-1.7311597E-3,-5.373168E-2,-1.1409228E-1,-3.978455E-2,1.030749E-2,-5.8420714E-2,-2.0980382E-2,3.0803997E-2,2.1448234E-2,4.8202495E-3,-5.60214E-2,9.3503315E-3,-8.055782E-2,-3.9467506E-2,2.1831456E-3,-4.893307E-2,-6.962476E-2,7.2307377E-3,-3.0402219E-2,-6.906961E-3,-3.2552264E-3,5.032091E-3,1.3431882E-3,-7.0162104E-3,4.886075E-3,-1.0360621E-2,2.5017148E-2,-3.1155554E-4,3.1435106E-2,-2.7774101E-2,9.272972E-3,-9.99504E-2,9.860235E-3,2.1835981E-2,4.9882203E-2,2.4272192E-2],"categories":[],"categories_nodes":[],"categories_segments":[],"categories_sizes":[],"default_left":[0,0,0,0,0,0,0,0,0,0,0,0,0,0,0,0,0,0,0,0,0,0,0,0,0,0,0,0,0,0,0,0,0,0,0,0,0,0,0,0,0,0,0,0,0,0,0,0,0,0,0,0,0,0,0,0,0,0,0,0,0,0,0,0,0,0,0,0,0,0,0,0,0,0,0,0,0,0,0,0,0,0,0,0,0],"id":0,"left_children":[1,3,5,7,9,-1,11,13,15,17,19,21,23,25,27,29,31,33,35,37,39,-1,41,43,45,47,49,51,53,55,57,59,61,63,-1,65,67,69,71,73,75,77,79,-1,81,-1,83,-1,-1,-1,-1,-1,-1,-1,-1,-1,-1,-1,-1,-1,-1,-1,-1,-1,-1,-1,-1,-1,-1,-1,-1,-1,-1,-1,-1,-1,-1,-1,-1,-1,-1,-1,-1,-1,-1],"loss_changes":[1.8052208E1,1.51462E1,9.181852E0,1.0530162E1,1.1856284E1,0E0,6.548218E0,2.3196499E1,9.819525E0,1.1699583E1,1.2338773E1,4.94666E0,2.6821709E0,1.4597105E1,1.6337036E1,8.793089E0,7.5414104E0,7.4127855E0,1.2572878E1,1.7976566E1,1.8733236E1,0E0,5.5826244E0,1.1268493E0,3.7054062E-1,6.588066E0,1.3269142E1,4.584484E0,9.400018E0,7.595663E0,8.389132E0,5.9165516E0,5.789881E-1,1.9398808E0,0E0,1.0260011E1,1.0793604E1,1.1532827E1,1.5795325E1,1.1746439E1,1.1286676E1,4.779258E0,1.0721333E1,0E0,5.866283E-2,0E0,2.4717331E-1,0E0,0E0,0E0,0E0,0E0,0E0,0E0,0E0,0E0,0E0,0E0,0E0,0E0,0E0,0E0,0E0,0E0,0E0,0E0,0E0,0E0,0E0,0E0,0E0,0E0,0E0,0E0,0E0,0E0,0E0,0E0,0E0,0E0,0E0,0E0,0E0,0E0,0E0],"parents":[2147483647,0,0,1,1,2,2,3,3,4,4,6,6,7,7,8,8,9,9,10,10,11,11,12,12,13,13,14,14,15,15,16,16,17,17,18,18,19,19,20,20,22,22,23,23,24,24,25,25,26,26,27,27,28,28,29,29,30,30,31,31,32,32,33,33,35,35,36,36,37,37,38,38,39,39,40,40,41,41,42,42,44,44,46,46],"right_children":[2,4,6,8,10,-1,12,14,16,18,20,22,24,26,28,30,32,34,36,38,40,-1,42,44,46,48,50,52,54,56,58,60,62,64,-1,66,68,70,72,74,76,78,80,-1,82,-1,84,-1,-1,-1,-1,-1,-1,-1,-1,-1,-1,-1,-1,-1,-1,-1,-1,-1,-1,-1,-1,-1,-1,-1,-1,-1,-1,-1,-1,-1,-1,-1,-1,-1,-1,-1,-1,-1,-1],"split_conditions":[1.99E2,1.1E1,9.754666E0,9.862599E0,3.20969E-2,-9.3093544E-2,9.350162E-1,7.546447E-1,3.2525787E1,5.6341526E1,2.3931566E-1,1.02125764E-1,5.921837E2,6.1834183E0,6.20868E-1,1.4197576E1,2.6E1,6.6863014E1,2.2968353E1,7.536088E-1,5.6806475E-1,-3.8982175E-2,8.383653E0,1.3157043E2,9.120201E0,1.3664581E3,7.183926E0,2.873111E2,7.183926E0,1.01958725E2,1.12211266E2,7.017804E-1,1.5355839E1,1.7126783E1,-1.1391107E-1,2.1451914E1,1.1E1,9.754229E1,9.647055E1,1.9163829E3,5.020455E-1,9.631878E1,3.404822E1,-4.648791E-2,1.8045955E2,9.917634E-3,7.13994E1,1.0154605E-2,4.8816156E-2,-1.7311597E-3,-5.373168E-2,-1.1409228E-1,-3.978455E-2,1.030749E-2,-5.8420714E-2,-2.0980382E-2,3.0803997E-2,2.1448234E-2,4.8202495E-3,-5.60214E-2,9.3503315E-3,-8.055782E-2,-3.9467506E-2,2.1831456E-3,-4.893307E-2,-6.962476E-2,7.2307377E-3,-3.0402219E-2,-6.906961E-3,-3.2552264E-3,5.032091E-3,1.3431882E-3,-7.0162104E-3,4.886075E-3,-1.0360621E-2,2.5017148E-2,-3.1155554E-4,3.1435106E-2,-2.7774101E-2,9.272972E-3,-9.99504E-2,9.860235E-3,2.1835981E-2,4.9882203E-2,2.4272192E-2],"split_indices":[11,11,5,15,4,0,9,4,7,13,9,1,5,1,14,15,10,0,2,14,9,0,1,0,0,5,15,13,15,6,5,14,1,0,0,7,12,3,3,5,14,3,2,0,0,0,15,0,0,0,0,0,0,0,0,0,0,0,0,0,0,0,0,0,0,0,0,0,0,0,0,0,0,0,0,0,0,0,0,0,0,0,0,0,0],"split_type":[0,0,0,0,0,0,0,0,0,0,0,0,0,0,0,0,0,0,0,0,0,0,0,0,0,0,0,0,0,0,0,0,0,0,0,0,0,0,0,0,0,0,0,0,0,0,0,0,0,0,0,0,0,0,0,0,0,0,0,0,0,0,0,0,0,0,0,0,0,0,0,0,0,0,0,0,0,0,0,0,0,0,0,0,0],"sum_hessian":[1.18768516E5,1.1815712E5,6.1140326E2,6.146734E3,1.1201038E5,6.493549E0,6.049097E2,7.088198E2,5.437914E3,3.4359995E3,1.0857438E5,4.8652142E2,1.18388306E2,5.838456E2,1.2497422E2,5.341409E3,9.650464E1,4.323655E1,3.392763E3,6.102232E4,4.7552062E4,1.654366E1,4.6997775E2,2.4119604E1,9.42687E1,1.8996765E2,3.9387793E2,4.4570583E1,8.040364E1,2.6414218E2,5.077267E3,7.011981E1,2.6384825E1,2.8972628E1,1.4263925E1,7.955768E2,2.597186E3,3.1308504E4,2.9713814E4,1.3016351E4,3.4535715E4,2.0831253E2,2.6166522E2,2.2411053E0,2.1878498E1,3.2028792E0,9.106582E1,1.2098123E2,6.898642E1,3.3744153E2,5.6436413E1,3.1415806E1,1.3154779E1,4.7412025E1,3.299161E1,3.1523647E1,2.3261853E2,3.2323865E2,4.7540283E3,1.771529E1,5.240452E1,1.821318E1,8.171644E0,1.3130262E1,1.5842365E1,1.677105E1,7.788057E2,2.1214732E2,2.3850388E3,2.952891E4,1.7795947E3,2.7249996E4,2.4638186E3,1.2490657E4,5.256937E2,1.7583554E2,3.435988E4,1.9441138E2,1.3901155E1,2.5334634E2,8.318888E0,1.0551033E1,1.1327465E1,8.411155E1,6.954271E0],"tree_param":{"num_deleted":"0","num_feature":"16","num_nodes":"85","size_leaf_vector":"1"}},{"base_weights":[-7.0585565E-6,-8.04684E-4,1.5426305E-1,4.2656895E-2,-3.1886606E-3,-8.6926885E-2,1.6643202E-1,-6.573149E-2,5.5672307E-2,-5.534335E-2,-1.5383896E-3,6.990379E-2,2.6354E-1,1.9251337E-2,-4.4434422E-1,6.0804088E-2,-2.2997993E-1,-5.262123E-1,-4.926644E-2,-1.0008104E-2,9.3305865E-3,1.0046686E-1,-9.337804E-1,7.855414E-2,3.9158896E-1,2.0588613E-1,-6.389045E-2,-8.919151E-1,-1.6035308E-1,1.9638766E-1,5.1598974E-2,-3.275159E-2,-5.692302E-1,-2.4061956E-1,-1.06748156E-1,4.965877E-2,-7.9574026E-2,-2.505673E-2,5.8482485E-3,3.8428023E-2,-1.6362735E-3,2.1007432E-1,-9.071622E-2,-1.2633331E-1,-1.0049131E-2,-3.6021012E-1,1.4653283E-1,4.5716125E-1,-2.1080038E-1,3.2800846E-3,4.107098E-2,-1.5585389E-3,-5.1134836E-2,-1.5572033E-2,-1.0616445E-1,-1.09082036E-1,-3.5367825E-3,2.3558572E-2,-6.036829E-2,8.53397E-3,-2.472013E-6,-5.1122066E-2,1.6619219E-2,-3.5306912E-2,-7.4130625E-2,1.9803187E-3,-4.4598937E-2,-1.2436482E-2,1.13653885E-2,-2.7439917E-2,-6.217299E-3,-1.2492631E-3,-5.120557E-3,-4.91877E-4,5.0846473E-3,7.90291E-4,6.524743E-3,-5.1572034E-4,8.683843E-3,-1.855905E-2,2.6046768E-2,-1.1570399E-1,-1.7319274E-3,-5.5760484E-2,-2.4505207E-2,9.899604E-3,3.8651124E-2,5.5021405E-2,3.883166E-2,9.5428166E-4,-7.9350516E-2],"categories":[],"categories_nodes":[],"categories_segments":[],"categories_sizes":[],"default_left":[0,0,0,0,0,0,0,0,0,0,0,0,0,0,0,0,0,0,0,0,0,0,0,0,0,0,0,0,0,0,0,0,0,0,0,0,0,0,0,0,0,0,0,0,0,0,0,0,0,0,0,0,0,0,0,0,0,0,0,0,0,0,0,0,0,0,0,0,0,0,0,0,0,0,0,0,0,0,0,0,0,0,0,0,0,0,0,0,0,0,0],"id":1,"left_children":[1,3,5,7,9,-1,11,13,15,17,19,21,23,25,27,29,31,33,35,37,39,41,43,45,47,49,51,53,55,57,59,61,63,65,-1,67,69,71,73,75,77,79,81,-1,-1,83,85,87,89,-1,-1,-1,-1,-1,-1,-1,-1,-1,-1,-1,-1,-1,-1,-1,-1,-1,-1,-1,-1,-1,-1,-1,-1,-1,-1,-1,-1,-1,-1,-1,-1,-1,-1,-1,-1,-1,-1,-1,-1,-1,-1],"loss_changes":[1.4613537E1,1.2241854E1,7.7533216E0,8.670985E0,9.640322E0,0E0,5.6482964E0,2.1216509E1,8.055605E0,9.804194E0,9.995013E0,9.435605E0,7.0991554E0,8.380985E0,1.5220129E1,6.716608E0,6.473109E0,6.4934587E0,1.017596E1,1.4561006E1,1.5174248E1,6.230939E0,2.3710446E0,3.7625556E0,7.1125393E0,5.8868375E0,8.072222E0,5.67025E0,8.702922E0,1.0877271E1,8.793496E0,6.026115E0,1.0627413E0,1.6067097E0,0E0,8.881974E0,8.788698E0,1.02853985E1,1.4396784E1,1.0655651E1,1.0759006E1,3.8111668E0,8.488901E0,0E0,0E0,2.4920964E-1,1.198385E0,8.1455994E-1,2.3342695E0,0E0,0E0,0E0,0E0,0E0,0E0,0E0,0E0,0E0,0E0,0E0,0E0,0E0,0E0,0E0,0E0,0E0,0E0,0E0,0E0,0E0,0E0,0E0,0E0,0E0,0E0,0E0,0E0,0E0,0E0,0E0,0E0,0E0,0E0,0E0,0E0,0E0,0E0,0E0,0E0,0E0,0E0],"parents":[2147483647,0,0,1,1,2,2,3,3,4,4,6,6,7,7,8,8,9,9,10,10,11,11,12,12,13,13,14,14,15,15,16,16,17,17,18,18,19,19,20,20,21,21,22,22,23,23,24,24,25,25,26,26,27,27,28,28,29,29,30,30,31,31,32,32,33,33,35,35,36,36,37,37,38,38,39,39,40,40,41,41,42,42,45,45,46,46,47,47,48,48],"right_children":[2,4,6,8,10,-1,12,14,16,18,20,22,24,26,28,30,32,34,36,38,40,42,44,46,48,50,52,54,56,58,60,62,64,66,-1,68,70,72,74,76,78,80,82,-1,-1,84,86,88,90,-1,-1,-1,-1,-1,-1,-1,-1,-1,-1,-1,-1,-1,-1,-1,-1,-1,-1,-1,-1,-1,-1,-1,-1,-1,-1,-1,-1,-1,-1,-1,-1,-1,-1,-1,-1,-1,-1,-1,-1,-1,-1],"split_conditions":[1.99E2,1.1E1,9.754666E0,8.764428E0,3.20969E-2,-8.6926885E-2,5.725829E-1,7.546447E-1,3.2525787E1,5.6341526E1,2.3931566E-1,3.3304543E1,2.3931566E-1,6.12954E0,2.873111E2,1.12211266E2,2.4E1,6.6863014E1,2.2968353E1,7.536088E-1,5.6806475E-1,1.8288962E2,7.526177E1,2.619979E1,2.2633151E2,1.7342392E2,7.183926E0,2.2002106E1,6.220597E1,3.122968E1,3.546049E-1,7.017804E-1,3.3636307E1,1.7126783E1,-1.06748156E-1,2.103924E1,1.1E1,1.7184561E2,1.64E2,2.7510065E1,1.9335533E1,-8.2298386E-1,1.8509343E2,-1.2633331E-1,-1.0049131E-2,4.8793583E0,2.5100853E2,5.796347E0,8.4986015E1,3.2800846E-3,4.107098E-2,-1.5585389E-3,-5.1134836E-2,-1.5572033E-2,-1.0616445E-1,-1.09082036E-1,-3.5367825E-3,2.3558572E-2,-6.036829E-2,8.53397E-3,-2.472013E-6,-5.1122066E-2,1.6619219E-2,-3.5306912E-2,-7.4130625E-2,1.9803187E-3,-4.4598937E-2,-1.2436482E-2,1.13653885E-2,-2.7439917E-2,-6.217299E-3,-1.2492631E-3,-5.120557E-3,-4.91877E-4,5.0846473E-3,7.90291E-4,6.524743E-3,-5.1572034E-4,8.683843E-3,-1.855905E-2,2.6046768E-2,-1.1570399E-1,-1.7319274E-3,-5.5760484E-2,-2.4505207E-2,9.899604E-3,3.8651124E-2,5.5021405E-2,3.883166E-2,9.5428166E-4,-7.9350516E-2],"split_indices":[11,11,5,15,4,0,4,4,7,13,9,2,9,1,13,5,10,0,2,14,9,0,0,7,6,0,15,2,3,7,9,14,2,0,0,2,12,6,11,7,1,8,0,0,0,1,0,1,3,0,0,0,0,0,0,0,0,0,0,0,0,0,0,0,0,0,0,0,0,0,0,0,0,0,0,0,0,0,0,0,0,0,0,0,0,0,0,0,0,0,0],"split_type":[0,0,0,0,0,0,0,0,0,0,0,0,0,0,0,0,0,0,0,0,0,0,0,0,0,0,0,0,0,0,0,0,0,0,0,0,0,0,0,0,0,0,0,0,0,0,0,0,0,0,0,0,0,0,0,0,0,0,0,0,0,0,0,0,0,0,0,0,0,0,0,0,0,0,0,0,0,0,0,0,0,0,0,0,0,0,0,0,0,0,0],"sum_hessian":[1.1875919E5,1.1814931E5,6.098747E2,6.1429053E3,1.1200641E5,6.338171E0,6.0353656E2,6.58132E2,5.4847734E3,3.4343904E3,1.08572016E5,3.0353427E2,3.0000226E2,5.382634E2,1.19868614E2,5.388751E3,9.6022484E1,4.2668026E1,3.3917224E3,6.1021066E4,4.7550953E4,2.9543784E2,8.09644E0,1.2337791E2,1.7662434E2,1.654311E2,3.728323E2,4.57018E1,7.416682E1,3.4130347E2,5.0474478E3,6.1414665E1,3.4607815E1,2.8876379E1,1.3791648E1,7.952747E2,2.5964478E3,3.1307654E4,2.971341E4,1.3015509E4,3.453544E4,1.8771808E2,1.0771975E2,5.432064E0,2.6643763E0,1.5974249E1,1.0740366E2,1.5950296E2,1.7121399E1,9.029114E1,7.513997E1,3.3743912E2,3.539321E1,8.921701E0,3.6780098E1,7.8676434E0,6.629917E1,3.2603546E2,1.5267992E1,3.052023E3,1.9954247E3,1.7575382E1,4.3839287E1,1.6691654E1,1.791616E1,1.3130101E1,1.5746277E1,2.135686E2,5.817061E2,2.1167928E2,2.3847686E3,2.1147904E4,1.015975E4,2.3977135E4,5.736275E3,6.087817E3,6.9276914E3,3.3214582E4,1.3208623E3,2.090433E1,1.6681375E2,5.986254E0,1.017335E2,4.4700184E0,1.15042305E1,9.0824875E1,1.6578781E1,6.485314E1,9.464981E1,1.31373005E1,3.984098E0],"tree_param":{"num_deleted":"0","num_feature":"16","num_nodes":"91","size_leaf_vector":"1"}},{"base_weights":[-1.5095083E-5,-7.2996365E-4,1.3867857E-1,3.833183E-2,-2.8714954E-3,-8.09624E-2,1.49785E-1,-5.6163207E-2,5.059504E-2,-9.755825E-3,7.491483E-3,9.518564E-2,2.9380295E-1,-8.8028455E-1,-2.6887476E-2,2.0694415E-1,4.2528026E-2,-2.5461348E-2,8.298401E-4,5.2065026E-2,-3.7861278E-3,1.476558E-1,-2.720177E-1,-1.6359434E-1,3.311245E-1,-9.995539E-2,-1.7539954E-3,9.153552E-3,-7.1383035E-1,-1.962245E-1,2.618201E-1,4.4574995E-2,-5.0822E-1,-4.049462E-2,8.765696E-3,1.4038743E-2,-2.1423554E-2,7.758624E-2,1.1889935E-2,1.6743962E-2,-1.7499862E-2,1.6404304E-1,-7.480466E-1,3.1202935E-2,-1.1507752E0,-3.7938543E-2,-7.99265E-3,-1.621512E-1,3.7405133E-1,1.6301483E-2,-7.825467E-3,-1.036581E-1,1.0788054E-2,8.655526E-3,-7.054345E-2,3.2159418E-2,-5.277343E-3,4.1114492E-3,3.895395E-2,-9.725367E-3,-5.7317555E-2,-3.3598733E-3,-1.4014733E-2,-4.8971496E-4,1.5641272E-2,2.4641515E-3,-3.0493184E-3,-1.7654592E-3,-2.0418026E-2,1.6264843E-2,5.1054615E-3,-1.8645391E-3,1.0479565E-2,5.3683496E-3,-9.51152E-4,-3.2433302E-3,3.2831102E-3,-3.4539398E-2,1.8817864E-2,-3.0473817E-2,-9.0127185E-2,3.1302445E-2,-9.694854E-3,-4.5182597E-2,-1.2436154E-1,-6.0164597E-2,-2.8194475E-3,-1.1480982E-2,3.944838E-2],"categories":[],"categories_nodes":[],"categories_segments":[],"categories_sizes":[],"default_left":[0,0,0,0,0,0,0,0,0,0,0,0,0,0,0,0,0,0,0,0,0,0,0,0,0,0,0,0,0,0,0,0,0,0,0,0,0,0,0,0,0,0,0,0,0,0,0,0,0,0,0,0,0,0,0,0,0,0,0,0,0,0,0,0,0,0,0,0,0,0,0,0,0,0,0,0,0,0,0,0,0,0,0,0,0,0,0,0,0],"id":2,"left_children":[1,3,5,7,9,-1,11,13,15,17,19,21,23,25,27,29,31,33,35,37,39,41,43,45,47,-1,-1,49,51,53,55,57,59,61,63,65,67,69,71,73,75,77,79,81,83,-1,-1,85,87,-1,-1,-1,-1,-1,-1,-1,-1,-1,-1,-1,-1,-1,-1,-1,-1,-1,-1,-1,-1,-1,-1,-1,-1,-1,-1,-1,-1,-1,-1,-1,-1,-1,-1,-1,-1,-1,-1,-1,-1],"loss_changes":[1.1774046E1,9.883065E0,6.534857E0,7.1185875E0,7.9906807E0,0E0,4.711567E0,1.7005785E1,6.8471146E0,1.1188479E1,2.247385E1,8.489398E0,2.874484E0,2.4707756E0,1.6907686E1,5.946228E0,5.8514404E0,1.3942545E1,1.1817522E1,9.255133E0,1.0046042E1,5.7642307E0,1.4738873E1,2.0678991E-1,3.302082E0,0E0,0E0,8.749162E0,9.14031E0,4.739828E0,4.4350986E0,6.1342487E0,4.574828E-1,1.2933193E1,1.6683743E1,1.1912704E1,1.0311144E1,1.245031E1,9.954156E0,1.3859648E1,1.6079706E1,4.71597E0,2.066276E-1,1.5471218E0,3.5837746E-1,0E0,0E0,7.456061E-1,1.454958E0,0E0,0E0,0E0,0E0,0E0,0E0,0E0,0E0,0E0,0E0,0E0,0E0,0E0,0E0,0E0,0E0,0E0,0E0,0E0,0E0,0E0,0E0,0E0,0E0,0E0,0E0,0E0,0E0,0E0,0E0,0E0,0E0,0E0,0E0,0E0,0E0,0E0,0E0,0E0,0E0],"parents":[2147483647,0,0,1,1,2,2,3,3,4,4,6,6,7,7,8,8,9,9,10,10,11,11,12,12,13,13,14,14,15,15,16,16,17,17,18,18,19,19,20,20,21,21,22,22,23,23,24,24,27,27,28,28,29,29,30,30,31,31,32,32,33,33,34,34,35,35,36,36,37,37,38,38,39,39,40,40,41,41,42,42,43,43,44,44,47,47,48,48],"right_children":[2,4,6,8,10,-1,12,14,16,18,20,22,24,26,28,30,32,34,36,38,40,42,44,46,48,-1,-1,50,52,54,56,58,60,62,64,66,68,70,72,74,76,78,80,82,84,-1,-1,86,88,-1,-1,-1,-1,-1,-1,-1,-1,-1,-1,-1,-1,-1,-1,-1,-1,-1,-1,-1,-1,-1,-1,-1,-1,-1,-1,-1,-1,-1,-1,-1,-1,-1,-1,-1,-1,-1,-1,-1,-1],"split_conditions":[1.99E2,1.1E1,9.754666E0,9.862599E0,3.546049E-1,-8.09624E-2,4.1157434E2,5.2008206E-1,1.4197576E1,7.0390326E-1,5.6806475E-1,3.6381403E2,1.5104264E-1,1.6911043E2,9.303446E-1,1.01958725E2,1.9913385E3,7.1E1,6.2E1,8.390716E1,7.908337E0,2.3481203E2,2.9115372E0,9.120201E0,-8.2298386E-1,-9.995539E-2,-1.7539954E-3,6.5385113E0,1.1818866E1,1.9984901E-1,8E0,1.9681711E3,1.1126385E2,9.260956E-1,9.7251274E1,2.4154341E2,4.8805164E2,2.1E1,3.886764E2,4.1110065E1,1.7345238E1,1.02125764E-1,6.3604455E0,3.77508E1,6.054723E1,-3.7938543E-2,-7.99265E-3,1.9895444E2,6.115409E-1,1.6301483E-2,-7.825467E-3,-1.036581E-1,1.0788054E-2,8.655526E-3,-7.054345E-2,3.2159418E-2,-5.277343E-3,4.1114492E-3,3.895395E-2,-9.725367E-3,-5.7317555E-2,-3.3598733E-3,-1.4014733E-2,-4.8971496E-4,1.5641272E-2,2.4641515E-3,-3.0493184E-3,-1.7654592E-3,-2.0418026E-2,1.6264843E-2,5.1054615E-3,-1.8645391E-3,1.0479565E-2,5.3683496E-3,-9.51152E-4,-3.2433302E-3,3.2831102E-3,-3.4539398E-2,1.8817864E-2,-3.0473817E-2,-9.0127185E-2,3.1302445E-2,-9.694854E-3,-4.5182597E-2,-1.2436154E-1,-6.0164597E-2,-2.8194475E-3,-1.1480982E-2,3.944838E-2],"split_indices":[11,11,5,15,9,0,13,14,15,14,9,13,4,0,4,6,5,12,12,3,1,6,1,0,9,0,0,1,1,4,11,5,0,4,3,0,13,12,13,15,1,1,1,0,3,0,0,0,14,0,0,0,0,0,0,0,0,0,0,0,0,0,0,0,0,0,0,0,0,0,0,0,0,0,0,0,0,0,0,0,0,0,0,0,0,0,0,0,0],"split_type":[0,0,0,0,0,0,0,0,0,0,0,0,0,0,0,0,0,0,0,0,0,0,0,0,0,0,0,0,0,0,0,0,0,0,0,0,0,0,0,0,0,0,0,0,0,0,0,0,0,0,0,0,0,0,0,0,0,0,0,0,0,0,0,0,0,0,0,0,0,0,0,0,0,0,0,0,0,0,0,0,0,0,0,0,0,0,0,0,0],"sum_hessian":[1.1875052E5,1.1814257E5,6.079473E2,6.1395503E3,1.1200302E5,6.205492E0,6.017418E2,7.0483276E2,5.434718E3,6.7296625E4,4.4706402E4,4.37529E2,1.6421286E2,2.3182041E1,6.816507E2,2.6544284E2,5.169275E3,2.7095186E4,4.0201438E4,9.026503E3,3.56799E4,3.8334958E2,5.4179424E1,1.2132972E1,1.5207988E2,2.0227179E1,2.9548612E0,6.4860767E2,3.3043064E1,3.1492746E1,2.339501E2,5.151049E3,1.822589E1,1.8826145E4,8.269041E3,2.5227543E4,1.4973895E4,5.519385E3,3.5071184E3,1.4288756E4,2.1391143E4,3.7726422E2,6.085349E0,4.0997486E1,1.318194E1,2.4024065E0,9.730565E0,1.19527235E1,1.4012717E2,2.3466719E2,4.1394046E2,2.3536812E1,9.506253E0,2.078193E1,1.0710815E1,1.9657735E2,3.737275E1,5.1009976E3,5.005137E1,2.8283665E0,1.5397522E1,1.7608955E4,1.2171885E3,7.5695435E3,6.994977E2,2.0376479E4,4.8510635E3,1.4672404E4,3.0148993E2,1.3110237E3,4.208361E3,2.640172E3,8.669462E2,5.9360815E3,8.352674E3,1.6496814E4,4.8943286E3,1.6463064E1,3.6080115E2,2.3307865E0,3.7545629E0,1.2364266E1,2.863322E1,2.2335227E0,1.0948418E1,1.9765552E0,9.976169E0,5.4364796E0,1.3469069E2],"tree_param":{"num_deleted":"0","num_feature":"16","num_nodes":"89","size_leaf_vector":"1"}},{"base_weights":[-1.9980234E-5,-6.594389E-4,1.24363765E-1,3.446401E-2,-2.5843503E-3,-7.523436E-2,1.3449876E-1,1.4669685E-1,2.5637835E-2,-4.9703404E-2,-1.0939867E-3,4.8196744E-2,2.1395925E-1,1.823868E-1,-4.7216624E-1,-1.1702622E-1,3.575025E-2,-5.704306E-1,-4.4549264E-2,-4.0444187E-3,2.461258E-2,2.8332567E-1,-1.976474E-2,-7.261186E-2,3.1740087E-1,2.3554106E-1,-8.339081E-2,-6.78571E-2,-3.50666E-2,-3.2673618E-1,9.60487E-3,-7.761479E-2,4.8457686E-2,-9.001933E-2,-3.1230513E-2,4.525323E-3,-9.4738506E-2,1.5020785E-1,-4.7054393E-3,-3.1845608E-1,2.7778344E-2,-3.5389256E-2,3.133178E-1,-9.011601E-1,1.5044609E-2,7.914803E-3,-1.0241475E-1,-9.868327E-2,3.3039987E-1,-1.5924502E-2,2.7784228E-2,3.189339E-3,-3.681711E-2,-2.6809102E-2,-1.5658757E-1,1.0281397E-2,-2.1879619E-2,-8.145397E-2,-4.348559E-3,5.025336E-3,-8.149036E-2,-3.6725767E-3,1.5546885E-2,-8.182166E-2,-8.465155E-3,2.6498063E-2,-8.53373E-3,-1.9474962E-4,-3.7603267E-3,-8.257433E-2,1.0544618E-3,1.3660558E-2,1.8348986E-3,3.73463E-2,7.131128E-4,-1.14423074E-1,-2.5186617E-2,-2.538628E-2,6.6559426E-3,1.4060943E-2,-2.4050856E-2,-4.2281266E-2,3.3965155E-2],"categories":[],"categories_nodes":[],"categories_segments":[],"categories_sizes":[],"default_left":[0,0,0,0,0,0,0,0,0,0,0,0,0,0,0,0,0,0,0,0,0,0,0,0,0,0,0,0,0,0,0,0,0,0,0,0,0,0,0,0,0,0,0,0,0,0,0,0,0,0,0,0,0,0,0,0,0,0,0,0,0,0,0,0,0,0,0,0,0,0,0,0,0,0,0,0,0,0,0,0,0,0,0],"id":3,"left_children":[1,3,5,7,9,-1,11,13,15,17,19,21,23,25,27,29,31,33,35,37,39,41,43,45,47,49,51,-1,-1,53,55,57,59,-1,-1,61,63,65,67,69,71,-1,73,75,77,79,-1,-1,81,-1,-1,-1,-1,-1,-1,-1,-1,-1,-1,-1,-1,-1,-1,-1,-1,-1,-1,-1,-1,-1,-1,-1,-1,-1,-1,-1,-1,-1,-1,-1,-1,-1,-1],"loss_changes":[9.444683E0,7.987243E0,5.497675E0,6.0765147E0,7.8650546E0,0E0,4.112816E0,9.965755E0,8.215554E0,9.190773E0,8.234385E0,4.63185E0,9.293765E0,6.004407E0,3.8068056E-1,1.001405E1,7.6615586E0,2.576395E0,8.377907E0,9.930948E0,1.2148773E1,1.3527694E0,6.932895E0,6.426217E0,4.225069E0,5.9441776E0,2.3539724E0,0E0,0E0,9.896279E0,5.047091E0,1.3450026E1,7.452363E0,0E0,0E0,1.0719829E1,1.2202562E1,1.1257908E1,8.798517E0,1.7079605E1,1.13639E1,0E0,1.1499815E0,1.0667048E0,3.0359828E0,2.6122303E0,0E0,0E0,1.7356339E0,0E0,0E0,0E0,0E0,0E0,0E0,0E0,0E0,0E0,0E0,0E0,0E0,0E0,0E0,0E0,0E0,0E0,0E0,0E0,0E0,0E0,0E0,0E0,0E0,0E0,0E0,0E0,0E0,0E0,0E0,0E0,0E0,0E0,0E0],"parents":[2147483647,0,0,1,1,2,2,3,3,4,4,6,6,7,7,8,8,9,9,10,10,11,11,12,12,13,13,14,14,15,15,16,16,17,17,18,18,19,19,20,20,21,21,22,22,23,23,24,24,25,25,26,26,29,29,30,30,31,31,32,32,35,35,36,36,37,37,38,38,39,39,40,40,42,42,43,43,44,44,45,45,48,48],"right_children":[2,4,6,8,10,-1,12,14,16,18,20,22,24,26,28,30,32,34,36,38,40,42,44,46,48,50,52,-1,-1,54,56,58,60,-1,-1,62,64,66,68,70,72,-1,74,76,78,80,-1,-1,82,-1,-1,-1,-1,-1,-1,-1,-1,-1,-1,-1,-1,-1,-1,-1,-1,-1,-1,-1,-1,-1,-1,-1,-1,-1,-1,-1,-1,-1,-1,-1,-1,-1,-1],"split_conditions":[1.99E2,1.1E1,9.754666E0,1.20032776E2,3.20969E-2,-7.523436E-2,2.3931566E-1,3.122968E1,2.2088705E2,4.0343872E1,1.7962381E1,1E1,2.4827209E-1,2.3497931E2,3.0138247E1,2.6579062E1,9.862599E0,4.7196455E0,1.3919754E2,3.5721622E-2,1.3E1,9.120201E0,4E0,1.9284715E2,1.6129768E0,2.9718823E0,7.6296394E1,-6.78571E-2,-3.50666E-2,7.8981E-1,8.645138E1,5.2008206E-1,9.9802816E-1,-9.001933E-2,-3.1230513E-2,1.5193359E3,5.7723007E1,8.372154E1,3.1094955E1,1.345984E2,4E0,-3.5389256E-2,9.127264E1,7.526177E1,2.3799093E1,2.0292447E2,-1.0241475E-1,-9.868327E-2,6.054723E1,-1.5924502E-2,2.7784228E-2,3.189339E-3,-3.681711E-2,-2.6809102E-2,-1.5658757E-1,1.0281397E-2,-2.1879619E-2,-8.145397E-2,-4.348559E-3,5.025336E-3,-8.149036E-2,-3.6725767E-3,1.5546885E-2,-8.182166E-2,-8.465155E-3,2.6498063E-2,-8.53373E-3,-1.9474962E-4,-3.7603267E-3,-8.257433E-2,1.0544618E-3,1.3660558E-2,1.8348986E-3,3.73463E-2,7.131128E-4,-1.14423074E-1,-2.5186617E-2,-2.538628E-2,6.6559426E-3,1.4060943E-2,-2.4050856E-2,-4.2281266E-2,3.3965155E-2],"split_indices":[11,11,5,5,4,0,9,7,5,6,1,12,4,0,2,2,15,1,0,4,11,0,10,6,15,1,5,0,0,4,3,14,14,0,0,5,13,3,7,6,10,0,3,0,2,0,0,0,3,0,0,0,0,0,0,0,0,0,0,0,0,0,0,0,0,0,0,0,0,0,0,0,0,0,0,0,0,0,0,0,0,0,0],"split_type":[0,0,0,0,0,0,0,0,0,0,0,0,0,0,0,0,0,0,0,0,0,0,0,0,0,0,0,0,0,0,0,0,0,0,0,0,0,0,0,0,0,0,0,0,0,0,0,0,0,0,0,0,0,0,0,0,0,0,0,0,0,0,0,0,0,0,0,0,0,0,0,0,0,0,0,0,0,0,0,0,0,0,0],"sum_hessian":[1.1874187E5,1.1813552E5,6.063418E2,6.137056E3,1.1199847E5,6.0924664E0,6.002493E2,4.463018E2,5.6907544E3,3.4328784E3,1.08565586E5,2.8850772E2,3.1174158E2,4.2263373E2,2.3668076E1,3.7597653E2,5.314778E3,3.257056E1,3.4003079E3,9.738878E4,1.1176807E4,6.398107E1,2.2452666E2,8.2761116E1,2.2898047E2,3.5229095E2,7.0342766E1,7.0709715E0,1.6597103E1,1.4095874E2,2.3501778E2,5.3518646E2,4.7795913E3,1.3208674E1,1.9361887E1,1.7197053E3,1.6806025E3,4.145961E2,9.697419E4,1.012835E2,1.1075523E4,2.3905947E0,6.1590477E1,7.5848513E0,2.1694182E2,7.721799E1,5.54313E0,1.5203677E0,2.274601E2,3.3827087E1,3.1846387E2,5.0704624E1,1.9638142E1,1.3575038E2,5.2083507E0,1.672954E2,6.772239E1,2.267685E1,5.125096E2,4.770611E3,8.980412E0,1.351196E3,3.6850928E2,2.2007656E1,1.6585948E3,2.7868018E2,1.3591591E2,8.94743E4,7.499893E3,3.9251553E1,6.2031944E1,8.820471E2,1.0193476E4,5.129477E1,1.0295709E1,4.964183E0,2.6206682E0,3.4246593E1,1.8269522E2,5.061573E1,2.6602253E1,2.2175882E0,2.2524251E2],"tree_param":{"num_deleted":"0","num_feature":"16","num_nodes":"83","size_leaf_vector":"1"}},{"base_weights":[-2.9007526E-5,-6.006767E-4,1.1143262E-1,3.873287E-2,-2.227498E-3,-6.976848E-2,1.2068359E-1,4.2708475E-2,-6.996929E-1,-3.7284132E-2,-7.194259E-5,1.3049918E-1,-4.614034E-1,1.8806972E-1,2.9611416E-2,4.9084283E-2,-9.674375E-1,-1.482747E-2,-1.4905202E-1,2.2973925E-2,-4.7054905E-3,5.081312E-2,2.1197419E-1,3.5360765E-3,-6.9796556E-1,-1.4304332E-1,2.151143E-1,2.1160139E-1,2.0143101E-2,-5.333456E-2,-1.1806432E-1,-1.498871E-1,4.022147E-3,1.274393E-1,-2.227522E-1,2.8154561E-2,-8.224682E-2,6.492865E-2,-6.116165E-3,7.465481E-2,-7.8149426E-1,4.83862E-2,3.3107242E-1,-3.0709976E-2,-8.29195E-2,1.2108389E-2,3.4628548E-2,1.3589563E-2,4.8954595E-2,8.4885275E-3,-5.1788177E-4,-9.339572E-3,-4.8988465E-2,1.3521913E-3,-3.158854E-2,3.9320525E-2,1.1011113E-3,-2.2157826E-3,-2.966859E-2,5.500863E-3,5.586063E-4,-2.2805838E-2,6.426873E-3,-6.213433E-3,1.1006605E-2,-4.2369246E-4,-6.026756E-3,2.686849E-2,1.0773506E-3,-1.0848643E-1,-8.97109E-3,-3.1864718E-2,1.0523865E-2,3.5669237E-2,-7.219173E-3],"categories":[],"categories_nodes":[],"categories_segments":[],"categories_sizes":[],"default_left":[0,0,0,0,0,0,0,0,0,0,0,0,0,0,0,0,0,0,0,0,0,0,0,0,0,0,0,0,0,0,0,0,0,0,0,0,0,0,0,0,0,0,0,0,0,0,0,0,0,0,0,0,0,0,0,0,0,0,0,0,0,0,0,0,0,0,0,0,0,0,0,0,0,0,0],"id":4,"left_children":[1,3,5,7,9,-1,11,13,15,17,19,21,23,25,27,-1,29,31,33,35,37,39,41,-1,43,-1,45,47,49,-1,-1,51,53,55,57,59,61,63,65,67,69,71,73,-1,-1,-1,-1,-1,-1,-1,-1,-1,-1,-1,-1,-1,-1,-1,-1,-1,-1,-1,-1,-1,-1,-1,-1,-1,-1,-1,-1,-1,-1,-1,-1],"loss_changes":[7.5658207E0,7.559133E0,4.6192555E0,1.3803719E1,8.572276E0,0E0,3.4876394E0,8.880775E0,8.5020895E0,1.649092E1,1.1412134E1,3.824376E0,1.21962E0,1.7186562E1,7.376055E0,0E0,1.304224E0,1.3933521E1,2.242902E1,9.754486E0,8.7410755E0,6.010422E0,5.6683846E0,0E0,1.01142645E-1,0E0,4.646778E0,4.388237E0,6.676648E0,0E0,0E0,1.2828641E1,1.4602504E1,7.173995E0,1.2870869E1,1.03338585E1,1.7955097E1,1.0140521E1,8.875035E0,3.6227279E0,1.6739612E0,2.62295E0,1.7683697E0,0E0,0E0,0E0,0E0,0E0,0E0,0E0,0E0,0E0,0E0,0E0,0E0,0E0,0E0,0E0,0E0,0E0,0E0,0E0,0E0,0E0,0E0,0E0,0E0,0E0,0E0,0E0,0E0,0E0,0E0,0E0,0E0],"parents":[2147483647,0,0,1,1,2,2,3,3,4,4,6,6,7,7,8,8,9,9,10,10,11,11,12,12,13,13,14,14,16,16,17,17,18,18,19,19,20,20,21,21,22,22,24,24,26,26,27,27,28,28,31,31,32,32,33,33,34,34,35,35,36,36,37,37,38,38,39,39,40,40,41,41,42,42],"right_children":[2,4,6,8,10,-1,12,14,16,18,20,22,24,26,28,-1,30,32,34,36,38,40,42,-1,44,-1,46,48,50,-1,-1,52,54,56,58,60,62,64,66,68,70,72,74,-1,-1,-1,-1,-1,-1,-1,-1,-1,-1,-1,-1,-1,-1,-1,-1,-1,-1,-1,-1,-1,-1,-1,-1,-1,-1,-1,-1,-1,-1,-1,-1],"split_conditions":[1.99E2,7.7557963E-1,9.754666E0,9.947765E1,-9.7094184E-1,-6.976848E-2,2.4529427E2,1.4E1,1.02125764E-1,1.670656E3,-7.485108E-1,5.725829E-1,5.1840377E0,2.1782495E1,-9.7094184E-1,4.9084283E-2,9.991709E2,2.4691414E1,8E0,1.9096088E3,5.4691772E0,3.3304543E1,2.3931566E-1,3.5360765E-3,6.3604455E0,-1.4304332E-1,1.3536313E3,4.3030048E2,7.168891E1,-5.333456E-2,-1.1806432E-1,1.7276167E1,1.94E2,3.2E1,1.2791785E2,7.817927E1,4.8772606E1,7.29105E1,9.615383E-1,1E1,7.526177E1,2.619979E1,2.904109E2,-3.0709976E-2,-8.29195E-2,1.2108389E-2,3.4628548E-2,1.3589563E-2,4.8954595E-2,8.4885275E-3,-5.1788177E-4,-9.339572E-3,-4.8988465E-2,1.3521913E-3,-3.158854E-2,3.9320525E-2,1.1011113E-3,-2.2157826E-3,-2.966859E-2,5.500863E-3,5.586063E-4,-2.2805838E-2,6.426873E-3,-6.213433E-3,1.1006605E-2,-4.2369246E-4,-6.026756E-3,2.686849E-2,1.0773506E-3,-1.0848643E-1,-8.97109E-3,-3.1864718E-2,1.0523865E-2,3.5669237E-2,-7.219173E-3],"split_indices":[11,1,5,3,8,0,6,11,1,5,8,4,1,7,8,0,5,7,10,5,0,2,9,0,1,0,5,13,3,0,0,1,11,11,13,3,15,6,4,12,0,7,0,0,0,0,0,0,0,0,0,0,0,0,0,0,0,0,0,0,0,0,0,0,0,0,0,0,0,0,0,0,0,0,0],"split_type":[0,0,0,0,0,0,0,0,0,0,0,0,0,0,0,0,0,0,0,0,0,0,0,0,0,0,0,0,0,0,0,0,0,0,0,0,0,0,0,0,0,0,0,0,0,0,0,0,0,0,0,0,0,0,0,0,0,0,0,0,0,0,0,0,0,0,0,0,0,0,0,0,0,0,0],"sum_hessian":[1.1873492E5,1.1813005E5,6.0487585E2,4.69086E3,1.1343919E5,5.996392E0,5.9887946E2,4.6666772E3,2.4182713E1,6.5701406E3,1.0686905E5,5.897111E2,9.168345E0,3.846108E2,4.2820664E3,4.287031E0,1.9895683E1,5.4718555E3,1.098285E3,1.788927E4,8.897977E4,2.989494E2,2.907617E2,3.231965E0,5.93638E0,5.468241E0,3.7914258E2,2.1070816E2,4.0713582E3,7.7065387E0,1.2189144E1,6.6929926E2,4.802556E3,2.3098805E2,8.67297E2,1.7050506E4,8.387643E2,1.7658989E3,8.7213875E4,2.9150934E2,7.440066E0,1.23092964E2,1.6766873E2,2.331676E0,3.604704E0,2.2195595E2,1.5718663E2,1.6677216E2,4.3936005E1,1.144019E3,2.927339E3,5.750312E2,9.4268074E1,4.664986E3,1.3757065E2,6.9641945E1,1.613461E2,2.3392355E2,6.333735E2,7.785348E3,9.265157E3,4.201132E2,4.186511E2,4.627812E2,1.3031178E3,8.4289805E4,2.9240698E3,7.140899E1,2.2010036E2,4.776985E0,2.6630807E0,1.5891878E1,1.0720109E2,1.577614E2,9.907321E0],"tree_param":{"num_deleted":"0","num_feature":"16","num_nodes":"75","size_leaf_vector":"1"}},{"base_weights":[-3.0823205E-5,1.1669982E-1,-5.2888464E-4,1.3479741E-1,-1.22296594E-1,-5.9912376E-2,6.233135E-4,-4.7957838E-1,1.591675E-1,-3.4166627E-2,-4.4728255E-1,1.590019E-2,-3.3462595E-3,-2.7430981E-2,-6.207658E-2,2.9842138E-1,5.99714E-2,-5.002324E-1,-2.0953085E-2,-3.5719153E-1,-1.3357975E-1,1.1435587E-2,1.715436E-1,-7.3679215E-3,3.0981787E-2,9.372361E-2,4.2216292E-1,1.12E-1,-4.1219655E-1,-2.4931477E-1,-1.4244972E-1,-6.391966E-2,9.60614E-2,-8.181267E-1,-2.3728597E-1,1.2551941E-2,-3.9753246E-1,-3.8821578E-1,1.9091536E-1,-1.2518885E-2,1.8176913E-2,-1.7201357E-1,3.736754E-2,-3.7685897E-2,2.4866119E-2,-4.7353697E-3,4.341616E-2,-2.8935142E-3,1.592548E-2,-6.542202E-2,-9.305938E-3,-3.8001873E-3,-5.6887623E-2,-1.460921E-2,1.1247003E-3,2.2397343E-2,-7.968082E-3,-1.0535908E-1,-1.5994959E-3,-3.92771E-2,7.681699E-3,1.5823081E-3,-1.2487224E-2,-1.01649845E-2,-5.8493007E-2,-1.4092664E-1,1.665731E-3,2.380885E-2,-3.5969645E-3,4.0834348E-4,-2.0844704E-3,1.0039225E-3,1.893288E-2,-2.1508054E-3,-5.00481E-2,2.6383146E-3,1.1148176E-2],"categories":[],"categories_nodes":[],"categories_segments":[],"categories_sizes":[],"default_left":[0,0,0,0,0,0,0,0,0,0,0,0,0,0,0,0,0,0,0,0,0,0,0,0,0,0,0,0,0,0,0,0,0,0,0,0,0,0,0,0,0,0,0,0,0,0,0,0,0,0,0,0,0,0,0,0,0,0,0,0,0,0,0,0,0,0,0,0,0,0,0,0,0,0,0,0,0],"id":5,"left_children":[1,3,5,7,-1,9,11,13,15,17,19,21,23,-1,-1,25,27,29,31,33,-1,35,37,39,41,43,45,47,49,51,-1,53,55,57,59,61,63,65,67,69,71,73,75,-1,-1,-1,-1,-1,-1,-1,-1,-1,-1,-1,-1,-1,-1,-1,-1,-1,-1,-1,-1,-1,-1,-1,-1,-1,-1,-1,-1,-1,-1,-1,-1,-1,-1],"loss_changes":[6.9028263E0,1.2394817E1,8.089185E0,7.5417995E0,0E0,2.2426598E1,7.033143E0,3.8827133E-1,6.6172895E0,1.2990347E1,1.0741783E1,1.6619825E1,1.2709197E1,0E0,0E0,5.0155334E0,6.968189E0,1.3132502E1,1.0332665E1,6.914316E0,0E0,1.062178E1,7.3061104E0,1.0842952E1,1.2520713E1,5.6696205E0,7.1967316E-1,1.7001374E0,2.1157403E0,3.1489673E0,0E0,9.284462E0,1.2427166E1,4.920727E0,5.0836587E0,1.0427507E1,3.4522953E0,9.382195E0,6.9151535E0,9.4792595E0,1.925791E1,1.4553561E1,7.61736E0,0E0,0E0,0E0,0E0,0E0,0E0,0E0,0E0,0E0,0E0,0E0,0E0,0E0,0E0,0E0,0E0,0E0,0E0,0E0,0E0,0E0,0E0,0E0,0E0,0E0,0E0,0E0,0E0,0E0,0E0,0E0,0E0,0E0,0E0],"parents":[2147483647,0,0,1,1,2,2,3,3,5,5,6,6,7,7,8,8,9,9,10,10,11,11,12,12,15,15,16,16,17,17,18,18,19,19,21,21,22,22,23,23,24,24,25,25,26,26,27,27,28,28,29,29,31,31,32,32,33,33,34,34,35,35,36,36,37,37,38,38,39,39,40,40,41,41,42,42],"right_children":[2,4,6,8,-1,10,12,14,16,18,20,22,24,-1,-1,26,28,30,32,34,-1,36,38,40,42,44,46,48,50,52,-1,54,56,58,60,62,64,66,68,70,72,74,76,-1,-1,-1,-1,-1,-1,-1,-1,-1,-1,-1,-1,-1,-1,-1,-1,-1,-1,-1,-1,-1,-1,-1,-1,-1,-1,-1,-1,-1,-1,-1,-1,-1,-1],"split_conditions":[2.700179E1,9.743214E-1,5.198869E1,5.2008206E-1,-1.22296594E-1,9.784629E1,6.571982E1,1.1856515E0,8.712422E2,2E0,9.6370375E-1,3.2235134E1,1.7962381E1,-2.7430981E-2,-6.207658E-2,3.148964E2,3.77508E1,3.2111164E1,8.7153155E-1,4.7925425E0,-1.3357975E-1,9.9802816E-1,5.9355934E1,4.269991E2,7.2745705E1,1.9E1,-9.350162E-1,5.318018E0,2.8318392E1,3E1,-1.4244972E-1,1.11E2,5.1083363E1,9.8696846E1,5.6806475E-1,3.1539452E1,1.7126783E1,3.1979298E1,3.4110615E1,-4.6472317E-1,9.743214E-1,5.7E1,9.350162E-1,-3.7685897E-2,2.4866119E-2,-4.7353697E-3,4.341616E-2,-2.8935142E-3,1.592548E-2,-6.542202E-2,-9.305938E-3,-3.8001873E-3,-5.6887623E-2,-1.460921E-2,1.1247003E-3,2.2397343E-2,-7.968082E-3,-1.0535908E-1,-1.5994959E-3,-3.92771E-2,7.681699E-3,1.5823081E-3,-1.2487224E-2,-1.01649845E-2,-5.8493007E-2,-1.4092664E-1,1.665731E-3,2.380885E-2,-3.5969645E-3,4.0834348E-4,-2.0844704E-3,1.0039225E-3,1.893288E-2,-2.1508054E-3,-5.00481E-2,2.6383146E-3,1.1148176E-2],"split_indices":[6,14,6,14,0,3,0,0,5,12,14,7,1,0,0,5,0,2,14,1,0,14,6,13,0,10,9,1,7,10,0,11,15,3,8,7,0,0,2,8,14,12,9,0,0,0,0,0,0,0,0,0,0,0,0,0,0,0,0,0,0,0,0,0,0,0,0,0,0,0,0,0,0,0,0,0,0],"split_type":[0,0,0,0,0,0,0,0,0,0,0,0,0,0,0,0,0,0,0,0,0,0,0,0,0,0,0,0,0,0,0,0,0,0,0,0,0,0,0,0,0,0,0,0,0,0,0,0,0,0,0,0,0,0,0,0,0,0,0,0,0,0,0,0,0,0,0,0,0,0,0,0,0,0,0,0,0],"sum_hessian":[1.1872758E5,5.0343835E2,1.1822414E5,4.9761545E2,5.8229227E0,2.2492332E3,1.1597491E5,1.8272875E1,4.7934256E2,2.1100793E3,1.3915381E2,2.391916E4,9.205575E4,8.645823E0,9.627052E0,1.9857281E2,2.8076974E2,5.7157906E1,2.0529214E3,1.2761617E2,1.153764E1,2.3253219E4,6.6594104E2,8.2402734E4,9.653012E3,7.547565E1,1.23097176E2,2.5358931E2,2.7180435E1,4.5952538E1,1.1205365E1,1.5018942E3,5.510272E2,2.5142292E1,1.0247388E2,2.3190885E4,6.2334522E1,2.1638636E1,6.4430237E2,6.857542E4,1.3827314E4,2.9360873E2,9.359402E3,1.8340084E1,5.7135563E1,2.9939845E0,1.2010319E2,6.3774017E1,1.8981529E2,1.4860632E1,1.2319802E1,2.8334808E1,1.7617731E1,7.170592E2,7.84835E2,3.1875238E2,2.3227483E2,1.9194344E1,5.9479485E0,6.837629E1,3.409759E1,2.2652566E4,5.383193E2,2.476904E1,3.7565483E1,5.439637E0,1.6199E1,5.3335895E2,1.10943474E2,2.2903867E4,4.5671555E4,1.3200724E4,6.265906E2,2.0208006E2,9.152867E1,8.152487E3,1.2069159E3],"tree_param":{"num_deleted":"0","num_feature":"16","num_nodes":"77","size_leaf_vector":"1"}},{"base_weights":[-3.7003876E-5,2.9283622E-3,-1.83464E-2,-2.161493E-3,4.5405358E-2,-2.3766646E-1,-1.4325695E-2,-5.1630672E-2,-2.041063E-4,3.2342874E-2,1.3735016E-1,4.3411216E-1,-3.028087E-1,2.0821905E-1,-1.6835205E-2,-3.2484885E-2,-3.8106862E-1,-4.098741E-3,2.2949303E-2,-5.4235123E-2,4.6702243E-2,1.555176E-1,-2.7301145E-1,5.3565748E-2,2.803629E-2,-3.6391023E-1,1.0267019E-1,8.660519E-2,5.481389E-2,-3.943955E-2,4.356348E-3,9.544364E-2,-6.139558E-2,-5.4395974E-1,-8.8144414E-2,2.271229E-2,-8.788567E-3,2.90402E-2,-2.390008E-1,6.784528E-2,-1.5539622E-1,9.1579325E-2,1.7222684E-2,-3.6333305E-1,1.6779824E-1,-1.0537378E0,6.586379E-2,-1.9807635E-1,-5.7388437E-1,-1.0834229E-1,4.8907597E-2,-7.2632715E-2,1.3203794E-1,-2.7587214E-2,-2.0757842E-1,-1.1843213E-1,1.8280007E-2,1.1001574E-2,-1.1941631E-1,-3.6140442E-2,-4.031303E-3,-7.709477E-2,-3.3230107E-2,-6.0801532E-2,-1.6735302E-3,-5.3509135E-2,2.5463698E-3,-1.15645E-3,4.197298E-3,4.506774E-3,-4.737657E-3,-4.5344513E-2,8.037514E-3,-3.380653E-2,1.1035123E-2,-2.5500074E-2,-1.7919235E-3,7.7351676E-3,3.115256E-2,2.6580816E-4,1.104019E-2,-8.559437E-3,-9.769395E-2,2.0820571E-2,2.295278E-3,-7.426911E-2,-1.3051061E-1,5.004359E-2,-1.6752511E-2,-5.9501387E-2,-1.5429865E-2,-2.506427E-2,-8.293559E-2,-4.0582236E-2,-1.5933122E-3,1.7897958E-2,-1.5705502E-2,-1.1845574E-3,-1.433484E-2,-7.822863E-3,-4.7960218E-2,-6.6839315E-2,-8.5364785E-3,-2.2572463E-2,2.4008357E-3],"categories":[],"categories_nodes":[],"categories_segments":[],"categories_sizes":[],"default_left":[0,0,0,0,0,0,0,0,0,0,0,0,0,0,0,0,0,0,0,0,0,0,0,0,0,0,0,0,0,0,0,0,0,0,0,0,0,0,0,0,0,0,0,0,0,0,0,0,0,0,0,0,0,0,0,0,0,0,0,0,0,0,0,0,0,0,0,0,0,0,0,0,0,0,0,0,0,0,0,0,0,0,0,0,0,0,0,0,0,0,0,0,0,0,0,0,0,0,0,0,0,0,0,0,0],"id":6,"left_children":[1,3,5,7,9,11,13,15,17,19,21,23,25,27,29,31,33,35,37,39,41,43,45,-1,-1,47,49,51,-1,53,55,57,59,61,63,65,67,69,71,73,75,77,79,81,83,85,87,89,91,93,-1,-1,95,97,99,101,103,-1,-1,-1,-1,-1,-1,-1,-1,-1,-1,-1,-1,-1,-1,-1,-1,-1,-1,-1,-1,-1,-1,-1,-1,-1,-1,-1,-1,-1,-1,-1,-1,-1,-1,-1,-1,-1,-1,-1,-1,-1,-1,-1,-1,-1,-1,-1,-1],"loss_changes":[6.445878E0,2.2090233E1,1.4588898E1,8.834947E0,1.3126469E1,1.3165308E1,9.079378E0,2.1891876E1,7.9146557E0,1.1905409E1,1.0179476E1,2.672906E-1,6.7787743E0,7.4466844E0,7.6984234E0,1.2148659E1,9.048847E0,9.447321E0,2.017115E1,1.6837261E1,1.0863647E1,8.361628E0,1.5416542E1,0E0,0E0,8.127998E0,3.021995E0,5.0710454E0,0E0,1.5491157E1,1.4184702E1,1.151176E1,1.6927307E1,5.620804E0,2.5633855E0,1.7181263E1,9.011404E0,1.5130272E1,1.9712677E1,1.0701992E1,1.020241E1,1.0164469E1,6.7282863E0,5.1034966E0,7.4474983E0,4.080925E-1,4.2819595E0,2.2327323E0,8.373489E0,6.634755E-1,0E0,0E0,1.7708452E0,1.3237782E1,1.7974712E1,1.5309946E1,1.0420716E1,0E0,0E0,0E0,0E0,0E0,0E0,0E0,0E0,0E0,0E0,0E0,0E0,0E0,0E0,0E0,0E0,0E0,0E0,0E0,0E0,0E0,0E0,0E0,0E0,0E0,0E0,0E0,0E0,0E0,0E0,0E0,0E0,0E0,0E0,0E0,0E0,0E0,0E0,0E0,0E0,0E0,0E0,0E0,0E0,0E0,0E0,0E0,0E0],"parents":[2147483647,0,0,1,1,2,2,3,3,4,4,5,5,6,6,7,7,8,8,9,9,10,10,11,11,12,12,13,13,14,14,15,15,16,16,17,17,18,18,19,19,20,20,21,21,22,22,25,25,26,26,27,27,29,29,30,30,31,31,32,32,33,33,34,34,35,35,36,36,37,37,38,38,39,39,40,40,41,41,42,42,43,43,44,44,45,45,46,46,47,47,48,48,49,49,52,52,53,53,54,54,55,55,56,56],"right_children":[2,4,6,8,10,12,14,16,18,20,22,24,26,28,30,32,34,36,38,40,42,44,46,-1,-1,48,50,52,-1,54,56,58,60,62,64,66,68,70,72,74,76,78,80,82,84,86,88,90,92,94,-1,-1,96,98,100,102,104,-1,-1,-1,-1,-1,-1,-1,-1,-1,-1,-1,-1,-1,-1,-1,-1,-1,-1,-1,-1,-1,-1,-1,-1,-1,-1,-1,-1,-1,-1,-1,-1,-1,-1,-1,-1,-1,-1,-1,-1,-1,-1,-1,-1,-1,-1,-1,-1],"split_conditions":[1.717953E3,1.5385347E3,-9.9270886E-1,3.9153874E-2,9.350162E-1,1E0,1E0,1.87E2,1.72E2,2.1837873E1,3.3998142E1,9.7958534E1,4.5E1,1.9580614E3,4.9076595E1,1.812888E1,1.977075E2,2.6E1,4.9166977E2,4.6759525E1,3.8E1,2.036355E1,3.4536053E1,5.3565748E-2,2.803629E-2,2.8E1,7.4625725E-1,5.837396E-1,5.481389E-2,9.303446E-1,1.1015362E-1,1.83E2,2.3609716E1,7.496241E-1,5.625218E0,5.0370306E-1,9.510904E1,2.9906286E1,3.3E1,2.3215025E1,6.257101E-1,1.84E2,9.254513E-1,2.0305395E1,3.6E1,1.41E2,7.064966E1,3.3458397E1,4.357899E0,2.3736885E1,4.8907597E-2,-7.2632715E-2,6.838634E1,4.3532322E1,2.0093608E2,5.2420986E-1,1.7266002E3,1.1001574E-2,-1.1941631E-1,-3.6140442E-2,-4.031303E-3,-7.709477E-2,-3.3230107E-2,-6.0801532E-2,-1.6735302E-3,-5.3509135E-2,2.5463698E-3,-1.15645E-3,4.197298E-3,4.506774E-3,-4.737657E-3,-4.5344513E-2,8.037514E-3,-3.380653E-2,1.1035123E-2,-2.5500074E-2,-1.7919235E-3,7.7351676E-3,3.115256E-2,2.6580816E-4,1.104019E-2,-8.559437E-3,-9.769395E-2,2.0820571E-2,2.295278E-3,-7.426911E-2,-1.3051061E-1,5.004359E-2,-1.6752511E-2,-5.9501387E-2,-1.5429865E-2,-2.506427E-2,-8.293559E-2,-4.0582236E-2,-1.5933122E-3,1.7897958E-2,-1.5705502E-2,-1.1845574E-3,-1.433484E-2,-7.822863E-3,-4.7960218E-2,-6.6839315E-2,-8.5364785E-3,-2.2572463E-2,2.4008357E-3],"split_indices":[5,5,8,4,8,10,12,11,11,2,2,0,10,5,15,15,0,11,13,15,12,2,2,0,0,10,14,14,0,4,4,11,15,14,1,14,15,7,10,7,4,11,14,2,10,11,3,0,1,2,0,0,15,15,0,14,5,0,0,0,0,0,0,0,0,0,0,0,0,0,0,0,0,0,0,0,0,0,0,0,0,0,0,0,0,0,0,0,0,0,0,0,0,0,0,0,0,0,0,0,0,0,0,0,0],"split_type":[0,0,0,0,0,0,0,0,0,0,0,0,0,0,0,0,0,0,0,0,0,0,0,0,0,0,0,0,0,0,0,0,0,0,0,0,0,0,0,0,0,0,0,0,0,0,0,0,0,0,0,0,0,0,0,0,0,0,0,0,0,0,0,0,0,0,0,0,0,0,0,0,0,0,0,0,0,0,0,0,0,0,0,0,0,0,0,0,0,0,0,0,0,0,0,0,0,0,0,0,0,0,0,0,0],"sum_hessian":[1.18719625E5,1.021727E5,1.654692E4,9.124064E4,1.0932066E4,2.9684064E2,1.6250079E4,3.4718157E3,8.776882E4,9.573345E3,1.3587216E3,2.5739393E1,2.7110126E2,1.8028549E2,1.6069794E4,3.2821663E3,1.8964948E2,7.513174E4,1.2637085E4,1.3615109E3,8.211834E3,1.3017135E3,5.700812E1,1.4005405E1,1.1733988E1,2.3568799E2,3.5413254E1,1.3370451E2,4.658097E1,7.7752856E3,8.294508E3,6.0458844E2,2.677578E3,1.21325195E2,6.832427E1,1.118499E4,6.394675E4,1.2350792E4,2.8629312E2,6.171131E2,7.4439777E2,3.2548423E3,4.9569917E3,2.9436852E1,1.2722766E3,1.6616428E1,4.0391693E1,1.3277107E2,1.0291692E2,2.3370476E1,1.2042778E1,6.283654E0,1.2742087E2,7.264374E3,5.1091156E2,8.4400256E2,7.450506E3,5.987376E2,5.850831E0,1.7474728E2,2.5028306E3,5.7267593E1,6.40576E1,7.3440156E0,6.0980255E1,5.395031E1,1.113104E4,6.0631824E4,3.3149246E3,1.0209812E4,2.1409802E3,1.7103334E2,1.1525977E2,5.7837784E1,5.5927527E2,4.3115988E2,3.1323788E2,3.0583582E3,1.964841E2,4.2878047E3,6.6918713E2,2.1048908E1,8.387942E0,9.94425E2,2.7785165E2,9.194104E0,7.422323E0,1.3713264E1,2.667843E1,1.1937814E1,1.2083325E2,4.6306973E1,5.660995E1,4.7352757E0,1.86352E1,1.0994876E2,1.7472103E1,6.3957573E3,8.6861676E2,3.4713382E2,1.6377776E2,4.6779194E1,7.972234E2,1.7001802E2,7.280488E3],"tree_param":{"num_deleted":"0","num_feature":"16","num_nodes":"105","size_leaf_vector":"1"}},{"base_weights":[-4.2877593E-5,2.4367897E-2,-2.1420901E-3,-1.4389205E-1,3.3444427E-2,-1.6926153E-1,-1.4861526E-3,-1.0440305E-1,-8.284663E-2,5.0545022E-2,-3.3889946E-2,1.4780568E-2,-3.2368177E-1,-3.610001E-2,6.530679E-4,-1.3820454E-1,-8.672643E-2,1.09994195E-1,2.6321134E-2,-2.6362065E-2,-8.669467E-1,7.3473394E-2,-6.571474E-2,-4.3850112E-1,-2.7145846E-2,2.6844341E-2,-7.787724E-2,2.4155302E-2,-2.7138365E-3,3.3041924E-1,-1.1864496E-1,-2.5156835E-1,1.262547E-1,-8.7877554E-1,2.928804E-2,-5.389887E-3,-2.2670971E-1,-1.1491933E-1,-4.890323E-2,2.2312649E-2,6.0793113E-2,-6.412489E-1,-1.9722612E-1,-2.5948966E-1,1.9381748E-1,-1.02149144E-1,2.9706156E-2,-4.8648383E-2,-2.2410426E-1,4.1022673E-2,-2.2904184E-2,-3.947409E-3,7.4317895E-2,4.8490707E-2,1.937941E-2,-1.9835582E-2,5.6110355E-3,-1.2238312E-2,-9.149677E-2,-4.5841318E-2,1.3601745E-2,3.7575554E-2,-1.2983036E-1,1.9525183E-2,1.3608093E-3,-6.76324E-3,6.1940616E-3,-9.991437E-3,-5.58345E-2,-2.4419117E-3,5.0641287E-2,-2.0264674E-3,-7.434481E-2,3.4819015E-3,-4.773682E-2,-3.2662243E-2,-1.3375876E-2,3.156973E-2,1.1347179E-2,-6.315569E-2,3.3847017E-3,-3.1970244E-2,-3.3198793E-3,-2.950118E-2,5.105931E-3,5.6692907E-3,-5.617077E-3,-1.4315153E-2,1.9493736E-3,-1.5511176E-4,-4.3291044E-3,9.499828E-3,-5.6310833E-2],"categories":[],"categories_nodes":[],"categories_segments":[],"categories_sizes":[],"default_left":[0,0,0,0,0,0,0,0,0,0,0,0,0,0,0,0,0,0,0,0,0,0,0,0,0,0,0,0,0,0,0,0,0,0,0,0,0,0,0,0,0,0,0,0,0,0,0,0,0,0,0,0,0,0,0,0,0,0,0,0,0,0,0,0,0,0,0,0,0,0,0,0,0,0,0,0,0,0,0,0,0,0,0,0,0,0,0,0,0,0,0,0,0],"id":7,"left_children":[1,3,5,7,9,11,13,15,-1,17,19,21,23,25,27,-1,29,31,33,35,37,39,-1,41,43,45,47,49,51,53,55,57,59,61,63,65,67,-1,-1,69,-1,71,73,75,77,-1,79,81,83,85,87,89,91,-1,-1,-1,-1,-1,-1,-1,-1,-1,-1,-1,-1,-1,-1,-1,-1,-1,-1,-1,-1,-1,-1,-1,-1,-1,-1,-1,-1,-1,-1,-1,-1,-1,-1,-1,-1,-1,-1,-1,-1],"loss_changes":[6.083052E0,1.4360731E1,1.198218E1,1.2924754E1,1.0272431E1,1.2149913E1,8.062416E0,1.01831875E1,0E0,1.0241379E1,1.1309831E1,7.77522E0,7.90147E0,1.6667568E1,8.114508E0,0E0,6.044698E0,1.2137764E1,1.3601479E1,7.528111E0,1.1608934E0,4.938006E0,0E0,8.066223E0,3.4355917E0,7.6177692E0,1.6271206E1,1.020079E1,8.523691E0,5.8827543E-1,5.857783E0,7.51147E0,1.1313755E1,9.1983185E0,1.3112841E1,6.806645E0,7.08348E0,0E0,0E0,3.7747078E0,0E0,5.732292E0,5.081686E0,2.3122E-1,3.0074513E-1,0E0,6.930146E0,1.329021E1,1.2391867E1,1.4410796E1,1.7291615E1,8.323273E0,1.8690577E1,0E0,0E0,0E0,0E0,0E0,0E0,0E0,0E0,0E0,0E0,0E0,0E0,0E0,0E0,0E0,0E0,0E0,0E0,0E0,0E0,0E0,0E0,0E0,0E0,0E0,0E0,0E0,0E0,0E0,0E0,0E0,0E0,0E0,0E0,0E0,0E0,0E0,0E0,0E0,0E0],"parents":[2147483647,0,0,1,1,2,2,3,3,4,4,5,5,6,6,7,7,9,9,10,10,11,11,12,12,13,13,14,14,16,16,17,17,18,18,19,19,20,20,21,21,23,23,24,24,25,25,26,26,27,27,28,28,29,29,30,30,31,31,32,32,33,33,34,34,35,35,36,36,39,39,41,41,42,42,43,43,44,44,46,46,47,47,48,48,49,49,50,50,51,51,52,52],"right_children":[2,4,6,8,10,12,14,16,-1,18,20,22,24,26,28,-1,30,32,34,36,38,40,-1,42,44,46,48,50,52,54,56,58,60,62,64,66,68,-1,-1,70,-1,72,74,76,78,-1,80,82,84,86,88,90,92,-1,-1,-1,-1,-1,-1,-1,-1,-1,-1,-1,-1,-1,-1,-1,-1,-1,-1,-1,-1,-1,-1,-1,-1,-1,-1,-1,-1,-1,-1,-1,-1,-1,-1,-1,-1,-1,-1,-1,-1],"split_conditions":[1.5316443E0,2.3304117E1,1.5879952E0,9.7094184E-1,7.690579E-1,1.100479E2,-9.7094184E-1,1E0,-8.284663E-2,2.611518E1,9.947765E1,3.4416363E1,2.9241987E1,1.9E1,-8.2298386E-1,-1.3820454E-1,8.0354805E1,7.189028E1,2.6142946E1,1.7879564E3,1.875296E2,9.7094184E-1,-6.571474E-2,1.9E1,2.9118027E1,2.1451914E1,1.670656E3,8.931448E1,1.97E2,2.9288038E1,8.931448E1,2.541754E1,6.054723E1,4.8021632E-1,6.3210064E1,2.3931566E-1,6.6E1,-1.1491933E-1,-4.890323E-2,4.7E1,6.0793113E-2,6.942504E1,2.7097258E1,3.1525503E1,2.946104E1,-1.02149144E-1,3.5239758E1,2.3769249E1,9.132178E-1,8.3E1,9.2482925E1,3.1469501E1,1.9403793E1,4.8490707E-2,1.937941E-2,-1.9835582E-2,5.6110355E-3,-1.2238312E-2,-9.149677E-2,-4.5841318E-2,1.3601745E-2,3.7575554E-2,-1.2983036E-1,1.9525183E-2,1.3608093E-3,-6.76324E-3,6.1940616E-3,-9.991437E-3,-5.58345E-2,-2.4419117E-3,5.0641287E-2,-2.0264674E-3,-7.434481E-2,3.4819015E-3,-4.773682E-2,-3.2662243E-2,-1.3375876E-2,3.156973E-2,1.1347179E-2,-6.315569E-2,3.3847017E-3,-3.1970244E-2,-3.3198793E-3,-2.950118E-2,5.105931E-3,5.6692907E-3,-5.617077E-3,-1.4315153E-2,1.9493736E-3,-1.5511176E-4,-4.3291044E-3,9.499828E-3,-5.6310833E-2],"split_indices":[1,7,1,9,4,0,8,10,0,7,3,2,2,10,8,0,13,13,7,5,0,9,0,10,7,7,5,3,11,0,3,2,3,1,3,9,12,0,0,10,0,3,7,2,2,0,6,7,14,12,3,7,1,0,0,0,0,0,0,0,0,0,0,0,0,0,0,0,0,0,0,0,0,0,0,0,0,0,0,0,0,0,0,0,0,0,0,0,0,0,0,0,0],"split_type":[0,0,0,0,0,0,0,0,0,0,0,0,0,0,0,0,0,0,0,0,0,0,0,0,0,0,0,0,0,0,0,0,0,0,0,0,0,0,0,0,0,0,0,0,0,0,0,0,0,0,0,0,0,0,0,0,0,0,0,0,0,0,0,0,0,0,0,0,0,0,0,0,0,0,0,0,0,0,0,0,0,0,0,0,0,0,0,0,0,0,0,0,0],"sum_hessian":[1.1870697E5,9.399058E3,1.09307914E5,4.8030728E2,8.91875E3,4.263471E2,1.0888156E5,4.552019E2,2.5105368E1,7.112636E3,1.8061139E3,1.9492941E2,2.3141771E2,6.33655E3,1.02545016E5,5.158624E0,4.5004327E2,2.058129E3,5.0545073E3,1.7909615E3,1.51523E1,1.8008928E2,1.4840124E1,1.6647823E2,6.493948E1,2.5280215E3,3.8085283E3,1.2848886E4,8.969613E4,3.1323404E1,4.1871988E2,8.7953575E1,1.9701752E3,1.5550057E1,5.0389575E3,1.6221803E3,1.687812E2,7.505735E0,7.6465645E0,1.6530708E2,1.4782204E1,8.956087E1,7.691736E1,3.1569586E1,3.33699E1,5.91335E0,2.5221082E3,3.1751836E3,6.333447E2,9.458747E3,3.3901382E3,8.828333E4,1.4128044E3,1.3504319E1,1.7819084E1,2.8746423E2,1.3125565E2,7.460923E1,1.3344342E1,3.1602818E1,1.9385724E3,3.9230738E0,1.1626984E1,4.3398697E2,4.60497E3,8.429372E2,7.7924316E2,1.2304011E2,4.5741104E1,1.5162024E2,1.3686836E1,1.2825941E1,7.6734924E1,4.2549114E1,3.4368248E1,1.9539093E1,1.2030493E1,1.2094303E1,2.1275597E1,1.4752369E1,2.507356E3,1.7015852E2,3.005025E3,5.035195E2,1.2982521E2,8.1458335E3,1.3129138E3,8.831125E2,2.5070256E3,8.321595E4,5.06737E3,1.3692327E3,4.357184E1],"tree_param":{"num_deleted":"0","num_feature":"16","num_nodes":"93","size_leaf_vector":"1"}},{"base_weights":[-4.849725E-5,-5.2345113E-4,1.11814335E-1,3.3514224E-2,-1.9299925E-3,2.2015633E-1,-7.42435E-2,1.0077321E-1,-1.3028766E-2,-3.8583703E-2,2.4346766E-4,4.3641648E-1,1.5891147E-1,3.1943205E-1,-1.7497252E-1,-1.20925404E-1,1.389252E-1,-1.1809296E-1,2.4605062E-2,-6.0879596E-2,7.4537724E-2,1.7088808E-3,-4.113878E-2,2.5303325E-2,5.223884E-2,2.9681292E-1,-7.4019865E-3,3.7605774E-2,1.631075E-2,-1.322953E-1,-9.895849E-2,-2.3555638E-1,3.4071693E-1,-7.035674E-2,1.4803095E-1,-4.6399E-3,-2.6030847E-1,6.8303265E-2,-5.02273E-2,-5.151846E-2,-4.3445083E-1,-1.4639398E-1,1.2634549E-1,-5.1823216E-3,1.2975154E-2,4.5957404E-1,-4.719183E-2,3.3350462E-1,2.1308765E-2,7.069461E-2,-3.765606E-1,2.9313717E-2,-1.8589982E-1,-5.342109E-2,-1.5612013E-3,3.5732243E-2,4.093474E-3,1.6924938E-2,-1.7565407E-3,-6.231637E-2,3.5194147E-3,-3.4767322E-3,-3.6087226E-2,2.5743395E-3,2.2342084E-2,-4.8438054E-2,-2.7335598E-3,9.737078E-4,-9.2749735E-3,-7.370673E-2,-5.0028474E-3,1.080587E-3,-3.1245941E-2,4.179575E-2,9.601802E-3,4.022032E-3,-9.4899425E-4,6.2843384E-3,7.134151E-4,-7.7820644E-3,4.9914353E-2,-5.4930258E-3,3.4907807E-2,2.8490951E-2,5.2430894E-2,-9.881624E-3,8.842162E-3,1.2052151E-2,-4.017012E-2,-3.570212E-3,-6.9292806E-2,-7.406068E-3,-3.0779675E-2],"categories":[],"categories_nodes":[],"categories_segments":[],"categories_sizes":[],"default_left":[0,0,0,0,0,0,0,0,0,0,0,0,0,0,0,0,0,0,0,0,0,0,0,0,0,0,0,0,0,0,0,0,0,0,0,0,0,0,0,0,0,0,0,0,0,0,0,0,0,0,0,0,0,0,0,0,0,0,0,0,0,0,0,0,0,0,0,0,0,0,0,0,0,0,0,0,0,0,0,0,0,0,0,0,0,0,0,0,0,0,0,0,0],"id":8,"left_children":[1,3,5,7,9,11,13,15,17,19,21,23,25,27,29,31,33,35,37,39,41,43,45,-1,-1,47,49,-1,-1,51,-1,53,55,-1,57,59,61,63,65,67,69,71,73,75,77,79,81,83,85,87,89,-1,91,-1,-1,-1,-1,-1,-1,-1,-1,-1,-1,-1,-1,-1,-1,-1,-1,-1,-1,-1,-1,-1,-1,-1,-1,-1,-1,-1,-1,-1,-1,-1,-1,-1,-1,-1,-1,-1,-1,-1,-1],"loss_changes":[6.3064513E0,5.658804E0,1.0132563E1,1.4684626E1,9.042645E0,4.1347666E0,7.409164E0,1.6243492E1,1.0967481E1,1.6030037E1,6.498162E0,9.6323586E-1,5.7115016E0,2.7622128E-1,5.024774E0,1.5014199E1,1.2664295E1,1.1801583E1,6.682632E0,1.8541101E1,1.1997808E1,8.034921E0,1.1129087E1,0E0,0E0,1.3688564E0,3.3080218E0,0E0,0E0,3.2944446E0,0E0,1.488048E1,2.668538E-1,0E0,5.697132E0,1.0072424E1,7.3495846E0,8.510227E0,7.476349E0,1.3082962E1,1.5043592E1,5.2053475E0,7.4623575E0,1.2559262E1,1.1440361E1,9.7165203E-1,1.1125832E1,9.637518E-1,1.4632037E-1,2.2795007E0,2.1354775E0,0E0,1.7056489E0,0E0,0E0,0E0,0E0,0E0,0E0,0E0,0E0,0E0,0E0,0E0,0E0,0E0,0E0,0E0,0E0,0E0,0E0,0E0,0E0,0E0,0E0,0E0,0E0,0E0,0E0,0E0,0E0,0E0,0E0,0E0,0E0,0E0,0E0,0E0,0E0,0E0,0E0,0E0,0E0],"parents":[2147483647,0,0,1,1,2,2,3,3,4,4,5,5,6,6,7,7,8,8,9,9,10,10,11,11,12,12,13,13,14,14,15,15,16,16,17,17,18,18,19,19,20,20,21,21,22,22,25,25,26,26,29,29,31,31,32,32,34,34,35,35,36,36,37,37,38,38,39,39,40,40,41,41,42,42,43,43,44,44,45,45,46,46,47,47,48,48,49,49,50,50,52,52],"right_children":[2,4,6,8,10,12,14,16,18,20,22,24,26,28,30,32,34,36,38,40,42,44,46,-1,-1,48,50,-1,-1,52,-1,54,56,-1,58,60,62,64,66,68,70,72,74,76,78,80,82,84,86,88,90,-1,92,-1,-1,-1,-1,-1,-1,-1,-1,-1,-1,-1,-1,-1,-1,-1,-1,-1,-1,-1,-1,-1,-1,-1,-1,-1,-1,-1,-1,-1,-1,-1,-1,-1,-1,-1,-1,-1,-1,-1,-1],"split_conditions":[3.36022E1,6.6316414E1,3.4459616E2,7.591048E1,9.233715E1,1.7348425E1,3.3084995E1,6.2707203E1,5.4907253E1,1.69E2,9.615383E-1,8.383653E0,-4.6472317E-1,1.645211E1,1.7941101E3,6.6312265E-1,5.158113E-1,1.5866695E2,9.0752655E1,1.9580614E3,-8.85456E-1,2.8294369E1,2E0,2.5303325E-2,5.223884E-2,8.3E1,4.5E1,3.7605774E-2,1.631075E-2,1.0610151E1,-9.895849E-2,1.0974846E3,2.3780893E2,-7.035674E-2,8.5E1,4.3875203E-2,5.7E1,8.794461E1,5.4952013E-1,6.831071E-1,9.6E1,4.9076595E1,2.2088705E2,6.3680946E1,5E0,-7.485108E-1,1.9774706E1,1.5688416E3,4.9837868E1,2.904109E2,3.2732804E0,2.9313717E-2,6.465126E1,-5.342109E-2,-1.5612013E-3,3.5732243E-2,4.093474E-3,1.6924938E-2,-1.7565407E-3,-6.231637E-2,3.5194147E-3,-3.4767322E-3,-3.6087226E-2,2.5743395E-3,2.2342084E-2,-4.8438054E-2,-2.7335598E-3,9.737078E-4,-9.2749735E-3,-7.370673E-2,-5.0028474E-3,1.080587E-3,-3.1245941E-2,4.179575E-2,9.601802E-3,4.022032E-3,-9.4899425E-4,6.2843384E-3,7.134151E-4,-7.7820644E-3,4.9914353E-2,-5.4930258E-3,3.4907807E-2,2.8490951E-2,5.2430894E-2,-9.881624E-3,8.842162E-3,1.2052151E-2,-4.017012E-2,-3.570212E-3,-6.9292806E-2,-7.406068E-3,-3.0779675E-2],"split_indices":[7,13,13,3,13,15,2,3,13,11,4,1,9,1,5,8,14,0,3,5,8,7,12,0,0,12,10,0,0,15,0,5,0,0,12,4,11,3,14,14,11,15,5,3,10,9,1,5,0,0,1,0,15,0,0,0,0,0,0,0,0,0,0,0,0,0,0,0,0,0,0,0,0,0,0,0,0,0,0,0,0,0,0,0,0,0,0,0,0,0,0,0,0],"split_type":[0,0,0,0,0,0,0,0,0,0,0,0,0,0,0,0,0,0,0,0,0,0,0,0,0,0,0,0,0,0,0,0,0,0,0,0,0,0,0,0,0,0,0,0,0,0,0,0,0,0,0,0,0,0,0,0,0,0,0,0,0,0,0,0,0,0,0,0,0,0,0,0,0,0,0,0,0,0,0,0,0,0,0,0,0,0,0,0,0,0,0,0,0],"sum_hessian":[1.18697086E5,1.18196234E5,5.008493E2,4.6895034E3,1.13506734E5,3.1641608E2,1.8443321E2,1.9174473E3,2.7720564E3,6.352921E3,1.0715381E5,6.848052E1,2.4793556E2,3.7133705E1,1.472995E2,2.812064E2,1.6362408E3,7.305121E2,2.0415442E3,5.3073247E3,1.0455958E3,1.03490016E5,3.6637925E3,2.3115974E1,4.5364544E1,1.3511671E2,1.12818855E2,2.6227615E1,1.0906091E1,1.4107124E2,6.228266E0,2.2566177E2,5.5544605E1,1.6680107E1,1.6195608E3,4.0692142E2,3.235907E2,1.288951E3,7.5259314E2,5.1786924E3,1.2863239E2,1.9826756E2,8.4732825E2,6.4213383E4,3.9276637E4,4.286713E1,3.6209253E3,1.1905097E2,1.6065744E1,9.378653E1,1.9032322E1,1.5285928E1,1.2578532E2,9.510002E1,1.3056175E2,5.2447502E1,3.0971007E0,1.4355914E3,1.8396938E2,2.3734808E1,3.8318658E2,1.0020342E2,2.2338727E2,1.0123554E3,2.765957E2,3.6684906E1,7.159082E2,2.0837375E3,3.094955E3,7.146106E1,5.7171318E1,1.0233282E2,9.593475E1,7.861629E1,7.68712E2,5.56366E3,5.8649723E4,4.1170557E3,3.5159582E4,2.8736248E0,3.9993507E1,3.5524146E3,6.8510796E1,9.687222E1,2.2178745E1,5.589226E0,1.0476519E1,8.551186E1,8.274666E0,9.69724E0,9.335082E0,6.643733E1,5.934798E1],"tree_param":{"num_deleted":"0","num_feature":"16","num_nodes":"93","size_leaf_vector":"1"}},{"base_weights":[-4.5632845E-5,1.04755625E-1,-4.91732E-4,1.2127519E-1,-1.1612991E-1,-7.06558E-2,3.104212E-4,-4.3572906E-1,1.4327051E-1,-4.5388546E-2,-4.6116415E-1,3.013891E-2,-1.3193791E-3,-2.5479734E-2,-5.6001943E-2,2.5680396E-1,4.3751717E-2,5.3530134E-2,-1.081642E-1,-2.2175092E-1,-1.1615508E0,3.4198575E-2,-2.2077993E-1,-3.022819E-3,3.551895E-2,-3.953787E-2,2.82961E-1,9.5142044E-2,-3.7890777E-1,-2.4354874E-1,1.0826124E-1,-6.445848E-2,-3.892317E-1,-4.7445778E-2,-4.9240488E-1,-1.2148514E-1,-4.9032714E-2,5.8275584E-2,-1.3805461E-2,-6.9364935E-2,-1.04583055E-1,-1.40213E-3,-4.301648E-2,6.909617E-2,-4.7262356E-2,1.34733785E-2,3.4257345E-2,-1.0104972E-2,1.36734145E-2,-6.0220417E-2,-8.712686E-3,-4.5542907E-2,3.5184193E-2,1.2541055E-2,-5.2379873E-2,-1.6743882E-2,2.3344231E-3,-9.076176E-2,-1.6304106E-2,1.4039606E-2,-2.6602376E-2,-6.885638E-2,-1.4969187E-2,2.01047E-3,1.122517E-2,-1.774108E-2,1.3777773E-3,6.3937143E-3,-4.3857962E-2,-4.4394936E-4,1.936904E-3,-9.227962E-3,2.5342645E-3,9.215797E-3,-5.091131E-3,-8.593819E-3,1.971834E-2],"categories":[],"categories_nodes":[],"categories_segments":[],"categories_sizes":[],"default_left":[0,0,0,0,0,0,0,0,0,0,0,0,0,0,0,0,0,0,0,0,0,0,0,0,0,0,0,0,0,0,0,0,0,0,0,0,0,0,0,0,0,0,0,0,0,0,0,0,0,0,0,0,0,0,0,0,0,0,0,0,0,0,0,0,0,0,0,0,0,0,0,0,0,0,0,0,0],"id":9,"left_children":[1,3,5,7,-1,9,11,13,15,17,19,21,23,-1,-1,25,27,29,31,33,35,37,39,41,43,-1,45,47,49,51,53,55,57,59,61,-1,-1,63,65,-1,67,69,71,73,75,-1,-1,-1,-1,-1,-1,-1,-1,-1,-1,-1,-1,-1,-1,-1,-1,-1,-1,-1,-1,-1,-1,-1,-1,-1,-1,-1,-1,-1,-1,-1,-1],"loss_changes":[5.548994E0,1.0662574E1,6.651885E0,6.1576056E0,0E0,1.3160622E1,5.6807632E0,2.8788614E-1,5.404896E0,7.8041434E0,1.3337414E1,6.1744056E0,6.9529867E0,0E0,0E0,3.9281435E0,5.6106596E0,7.964736E0,9.41667E0,2.885439E0,1.3481522E-1,6.887542E0,5.231005E0,6.864311E0,1.36151085E1,0E0,1.8594933E0,1.8875813E0,1.7733603E0,9.780789E0,4.54202E0,6.029206E0,1.1956768E1,1.6226492E0,1.5135055E0,0E0,0E0,8.173816E0,8.987766E0,0E0,4.4554787E0,6.4213448E0,1.3891678E1,9.648006E0,1.3382629E1,0E0,0E0,0E0,0E0,0E0,0E0,0E0,0E0,0E0,0E0,0E0,0E0,0E0,0E0,0E0,0E0,0E0,0E0,0E0,0E0,0E0,0E0,0E0,0E0,0E0,0E0,0E0,0E0,0E0,0E0,0E0,0E0],"parents":[2147483647,0,0,1,1,2,2,3,3,5,5,6,6,7,7,8,8,9,9,10,10,11,11,12,12,15,15,16,16,17,17,18,18,19,19,20,20,21,21,22,22,23,23,24,24,26,26,27,27,28,28,29,29,30,30,31,31,32,32,33,33,34,34,37,37,38,38,40,40,41,41,42,42,43,43,44,44],"right_children":[2,4,6,8,-1,10,12,14,16,18,20,22,24,-1,-1,26,28,30,32,34,36,38,40,42,44,-1,46,48,50,52,54,56,58,60,62,-1,-1,64,66,-1,68,70,72,74,76,-1,-1,-1,-1,-1,-1,-1,-1,-1,-1,-1,-1,-1,-1,-1,-1,-1,-1,-1,-1,-1,-1,-1,-1,-1,-1,-1,-1,-1,-1,-1,-1],"split_conditions":[2.700179E1,9.743214E-1,4.500578E1,5.2008206E-1,-1.1612991E-1,9.784629E1,1.1E1,1.1856515E0,9.5897473E2,-4.6472317E-1,1.1420838E1,3.2525787E1,9.7864574E-1,-2.5479734E-2,-5.6001943E-2,9.754666E0,3.77508E1,9E0,9.23466E1,8.064756E-1,1.7276167E1,8.527845E-1,3.292172E1,9.581348E-1,6.6312265E-1,-3.953787E-2,-1.2053668E-1,4.975613E0,2.8318392E1,3.452924E1,9.382755E-1,1.1E2,4.2E1,4.0343872E1,6.044062E0,-1.2148514E-1,-4.9032714E-2,7.1302545E-1,-8.2298386E-1,-6.9364935E-2,2.4E1,8.9612454E-1,3.546049E-1,3.0059206E1,4.224916E2,1.34733785E-2,3.4257345E-2,-1.0104972E-2,1.36734145E-2,-6.0220417E-2,-8.712686E-3,-4.5542907E-2,3.5184193E-2,1.2541055E-2,-5.2379873E-2,-1.6743882E-2,2.3344231E-3,-9.076176E-2,-1.6304106E-2,1.4039606E-2,-2.6602376E-2,-6.885638E-2,-1.4969187E-2,2.01047E-3,1.122517E-2,-1.774108E-2,1.3777773E-3,6.3937143E-3,-4.3857962E-2,-4.4394936E-4,1.936904E-3,-9.227962E-3,2.5342645E-3,9.215797E-3,-5.091131E-3,-8.593819E-3,1.971834E-2],"split_indices":[6,14,6,14,0,3,11,0,5,9,1,7,14,0,0,5,0,10,3,4,1,14,7,14,8,0,9,1,7,0,4,11,12,6,1,0,0,14,8,0,10,14,9,7,13,0,0,0,0,0,0,0,0,0,0,0,0,0,0,0,0,0,0,0,0,0,0,0,0,0,0,0,0,0,0,0,0],"split_type":[0,0,0,0,0,0,0,0,0,0,0,0,0,0,0,0,0,0,0,0,0,0,0,0,0,0,0,0,0,0,0,0,0,0,0,0,0,0,0,0,0,0,0,0,0,0,0,0,0,0,0,0,0,0,0,0,0,0,0,0,0,0,0,0,0,0,0,0,0,0,0,0,0,0,0,0,0],"sum_hessian":[1.186885E5,5.0207938E2,1.18186414E5,4.9650516E2,5.5742188E0,1.3349135E3,1.1685151E5,1.8146921E1,4.7835825E2,1.2548373E3,8.007612E1,6.0529707E3,1.1079853E5,8.631668E0,9.515253E0,2.2270758E2,2.5565067E2,4.872309E2,7.6760645E2,6.0657997E1,1.9418118E1,5.9574478E3,9.552302E1,1.0590242E5,4.8961123E3,8.043392E0,2.1466418E2,2.2862723E2,2.7023436E1,7.526185E1,4.1196906E2,6.653712E2,1.02235214E2,3.761116E1,2.3046839E1,1.7239273E1,2.1788454E0,3.9673572E3,1.9900903E3,1.7862206E1,7.766081E1,1.01779E5,4.1234214E3,3.483374E3,1.4127382E3,6.250491E1,1.5215927E2,3.9740406E1,1.8888683E2,1.4705559E1,1.2317877E1,5.5681633E1,1.9580217E1,4.0186703E2,1.0102026E1,3.058016E2,3.595696E2,3.0142267E1,7.209295E1,2.0420149E1,1.719101E1,1.4015577E1,9.031262E0,2.324727E3,1.6426302E3,2.8633145E2,1.7037589E3,5.2154488E1,2.5506327E1,8.879527E4,1.2983728E4,2.3962263E3,1.7271951E3,2.9220723E3,5.6130176E2,1.2203108E3,1.9242732E2],"tree_param":{"num_deleted":"0","num_feature":"16","num_nodes":"77","size_leaf_vector":"1"}},{"base_weights":[-4.8630674E-5,-7.848564E-2,5.3794245E-4,-4.85426E-1,-5.7311013E-2,3.7838817E-3,-1.3604587E-2,-9.5474236E-2,-2.7610722E-1,-1.9658776E-2,-2.799079E-1,-3.5107244E-2,6.1618304E-3,-2.9219056E-2,6.0877636E-2,-2.9918442E-2,-3.1086316E-3,-3.8658306E-3,-6.5765274E-1,-2.1616854E-1,-1.4267106E-1,1.9580328E-1,-4.3886285E-2,5.602143E-3,1.2967311E-1,-2.6038226E-1,-2.6558777E-2,-5.7665434E-2,8.586212E-2,2.5140736E-1,-3.8024973E-2,-8.976763E-2,-4.3066874E-2,-3.5601664E-1,-4.877221E-2,1.2745945E-1,4.3462336E-1,1.2127959E-2,-8.168197E-2,4.226066E-3,5.150234E-2,2.3995662E-1,-7.334521E-2,-3.8293317E-1,3.1702262E-1,-2.4066709E-2,-2.6891956E-1,-1.2688589E-1,1.8445756E-1,-3.512749E-2,1.067997E-1,-1.7368827E-2,3.708941E-2,-7.572334E-3,2.6826022E-2,-1.3613182E-2,-5.5142343E-2,-1.645132E-2,1.9985998E-2,-2.6395505E-3,2.5595203E-2,5.0895054E-2,2.789634E-2,-3.950815E-3,1.1186169E-2,-5.3393464E-3,-2.6850099E-2,4.9230494E-3,2.4075141E-4,8.954848E-3,-5.708886E-3,2.8822808E-2,8.7378285E-4,-2.1338945E-2,1.6305842E-2,1.8456049E-4,-5.371691E-2,3.4644715E-2,2.3156881E-2,-3.7587031E-3,2.2054387E-3,-1.7545283E-2,-8.2229406E-2,-2.4829974E-2,9.815863E-3,-6.639394E-2,2.45997E-2,-5.5916708E-2,1.2226016E-3,4.9546007E-3,1.5582414E-2],"categories":[],"categories_nodes":[],"categories_segments":[],"categories_sizes":[],"default_left":[0,0,0,0,0,0,0,0,0,0,0,0,0,0,0,0,0,0,0,0,0,0,0,0,0,0,0,0,0,0,0,0,0,0,0,0,0,0,0,0,0,0,0,0,0,0,0,0,0,0,0,0,0,0,0,0,0,0,0,0,0,0,0,0,0,0,0,0,0,0,0,0,0,0,0,0,0,0,0,0,0,0,0,0,0,0,0,0,0,0,0],"id":10,"left_children":[1,3,5,7,9,11,13,-1,15,17,19,21,23,25,27,-1,-1,29,31,33,-1,35,37,39,41,43,45,47,49,51,53,-1,-1,55,57,59,61,63,65,67,69,71,73,75,77,79,81,83,85,87,89,-1,-1,-1,-1,-1,-1,-1,-1,-1,-1,-1,-1,-1,-1,-1,-1,-1,-1,-1,-1,-1,-1,-1,-1,-1,-1,-1,-1,-1,-1,-1,-1,-1,-1,-1,-1,-1,-1,-1,-1],"loss_changes":[5.4605513E0,7.56329E0,5.407912E0,4.0036745E0,7.022416E0,8.861165E0,2.5577105E1,0E0,1.6851544E-1,7.234766E0,8.5538435E0,1.1200586E1,6.241065E0,1.1173215E1,1.1293631E1,0E0,0E0,6.1304235E0,5.583854E-1,2.6990309E0,0E0,3.2481298E0,1.126307E1,5.6772637E0,9.136242E0,1.4749854E1,1.0849803E1,1.1153366E1,7.9794254E0,4.2790065E0,7.178715E0,0E0,0E0,2.6344714E0,1.5860977E0,3.1457124E0,3.742485E-1,1.1046308E1,1.6772797E1,7.142482E0,1.0814184E1,2.9456692E0,4.8064103E0,1.0148514E1,1.21593475E-2,1.1095882E1,9.312787E0,1.4151505E1,7.8931155E0,1.1551282E1,7.5263824E0,0E0,0E0,0E0,0E0,0E0,0E0,0E0,0E0,0E0,0E0,0E0,0E0,0E0,0E0,0E0,0E0,0E0,0E0,0E0,0E0,0E0,0E0,0E0,0E0,0E0,0E0,0E0,0E0,0E0,0E0,0E0,0E0,0E0,0E0,0E0,0E0,0E0,0E0,0E0,0E0],"parents":[2147483647,0,0,1,1,2,2,3,3,4,4,5,5,6,6,8,8,9,9,10,10,11,11,12,12,13,13,14,14,17,17,18,18,19,19,21,21,22,22,23,23,24,24,25,25,26,26,27,27,28,28,29,29,30,30,33,33,34,34,35,35,36,36,37,37,38,38,39,39,40,40,41,41,42,42,43,43,44,44,45,45,46,46,47,47,48,48,49,49,50,50],"right_children":[2,4,6,8,10,12,14,-1,16,18,20,22,24,26,28,-1,-1,30,32,34,-1,36,38,40,42,44,46,48,50,52,54,-1,-1,56,58,60,62,64,66,68,70,72,74,76,78,80,82,84,86,88,90,-1,-1,-1,-1,-1,-1,-1,-1,-1,-1,-1,-1,-1,-1,-1,-1,-1,-1,-1,-1,-1,-1,-1,-1,-1,-1,-1,-1,-1,-1,-1,-1,-1,-1,-1,-1,-1,-1,-1,-1],"split_conditions":[9.295723E-3,6E0,2.4368007E2,2.3736885E1,9.232515E-1,-9.7094184E-1,4.2057224E2,-9.5474236E-2,2.0292447E2,1.9567177E1,4.743336E2,7.7557963E-1,1.9913385E3,5.4907253E1,3.688586E2,-2.9918442E-2,-3.1086316E-3,2.3550352E1,9.3719826E1,4.4422165E1,-1.4267106E-1,4.2882977E2,1.9E1,1.94E2,1.6412451E2,1.7345238E1,4.172003E2,1.66E2,1.4E1,5.2951355E2,3.068533E1,-8.976763E-2,-4.3066874E-2,4.9E1,2.946104E1,2.1E1,2.5291348E1,1.3174595E1,1.7090853E3,6.6316414E1,2.9084818E1,9.0915436E1,2.4E1,4.225287E0,2.8062076E2,3.9E1,3.041404E1,2.8062076E2,7.4090004E-2,2.1740038E1,7.9740685E1,-1.7368827E-2,3.708941E-2,-7.572334E-3,2.6826022E-2,-1.3613182E-2,-5.5142343E-2,-1.645132E-2,1.9985998E-2,-2.6395505E-3,2.5595203E-2,5.0895054E-2,2.789634E-2,-3.950815E-3,1.1186169E-2,-5.3393464E-3,-2.6850099E-2,4.9230494E-3,2.4075141E-4,8.954848E-3,-5.708886E-3,2.8822808E-2,8.7378285E-4,-2.1338945E-2,1.6305842E-2,1.8456049E-4,-5.371691E-2,3.4644715E-2,2.3156881E-2,-3.7587031E-3,2.2054387E-3,-1.7545283E-2,-8.2229406E-2,-2.4829974E-2,9.815863E-3,-6.639394E-2,2.45997E-2,-5.5916708E-2,1.2226016E-3,4.9546007E-3,1.5582414E-2],"split_indices":[4,12,0,2,14,8,13,0,0,1,13,1,5,13,5,0,0,7,3,15,0,13,10,11,6,1,13,11,12,5,7,0,0,11,2,10,2,1,5,13,7,3,10,1,0,10,7,0,4,2,3,0,0,0,0,0,0,0,0,0,0,0,0,0,0,0,0,0,0,0,0,0,0,0,0,0,0,0,0,0,0,0,0,0,0,0,0,0,0,0,0],"split_type":[0,0,0,0,0,0,0,0,0,0,0,0,0,0,0,0,0,0,0,0,0,0,0,0,0,0,0,0,0,0,0,0,0,0,0,0,0,0,0,0,0,0,0,0,0,0,0,0,0,0,0,0,0,0,0,0,0,0,0,0,0,0,0,0,0,0,0,0,0,0,0,0,0,0,0,0,0,0,0,0,0,0,0,0,0,0,0,0,0,0,0],"sum_hessian":[1.186824E5,8.799653E2,1.1780244E5,4.2438797E1,8.375265E2,9.581262E4,2.1989814E4,1.1991441E1,3.0447355E1,7.1728595E2,1.2024052E2,5.519987E3,9.029263E4,1.8179309E4,3.810506E3,2.7624496E1,2.8228588E0,7.009409E2,1.634508E1,1.1503535E2,5.2051754E0,2.0139865E2,5.318588E3,8.988636E4,4.0627185E2,2.0572906E2,1.797358E4,6.6308417E2,3.147422E3,8.197527E1,6.1896564E2,6.508201E0,9.836879E0,6.2060925E1,5.297442E1,1.5778E2,4.3618652E1,2.1431135E3,3.1754746E3,8.7271086E4,2.6152737E3,2.631446E2,1.4312724E2,1.6998708E2,3.5741985E1,1.7791736E4,1.8184369E2,5.160319E2,1.4705223E2,4.6421835E2,2.6832036E3,1.7886658E1,6.4088615E1,5.518013E2,6.716434E1,2.99998E1,3.2061127E1,3.637827E1,1.6596151E1,7.216517E1,8.561484E1,2.7985863E1,1.5632788E1,1.4124408E3,7.306728E2,2.7589888E3,4.164857E2,3.3884993E3,8.3882586E4,1.9368514E3,6.784222E2,2.1749226E2,4.565233E1,8.99429E1,5.318434E1,4.892354E1,1.2106354E2,2.4315254E1,1.1426732E1,1.3758607E4,4.0331282E3,1.5669453E2,2.5149147E1,3.3512512E2,1.809068E2,9.28319E0,1.3776904E2,3.75758E1,4.2664255E2,1.2386473E3,1.4445564E3],"tree_param":{"num_deleted":"0","num_feature":"16","num_nodes":"91","size_leaf_vector":"1"}},{"base_weights":[-4.883346E-5,-4.709225E-4,9.961676E-2,-2.624471E-3,1.8284464E-2,1.9793692E-1,-6.914153E-2,-6.9081836E-4,-3.452165E-2,-2.5013842E-2,4.088633E-2,3.8947892E-1,1.4386718E-1,2.9113945E-1,-1.6130051E-1,1.3907016E-3,-3.315598E-2,-4.754116E-2,2.2355908E-1,-5.132148E-2,1.073501E-1,7.7759884E-2,9.214682E-3,2.2823505E-2,4.6539575E-2,2.6906815E-1,-7.011399E-3,3.4076333E-2,1.5353034E-2,-2.3106687E-2,-3.7618044E-1,-7.2103716E-3,9.712296E-3,-7.610605E-2,3.0743992E-2,-8.034149E-2,3.3493064E-2,3.6740747E-1,1.3242133E-1,-8.7197065E-1,-4.6875753E-2,-9.306916E-2,1.1853048E-1,-7.531486E-2,9.449776E-2,-8.449482E-1,1.2138148E-2,3.122546E-1,6.5192334E-2,6.415891E-2,-3.4514228E-1,2.6638607E-2,-8.483066E-2,-2.9399538E-1,-9.260525E-2,6.015639E-3,-9.769573E-4,-2.0758647E-2,1.1055004E-3,3.4916175E-3,-1.2202206E-2,-1.0269406E-2,5.685165E-3,1.644738E-3,-1.06423395E-2,2.2142852E-2,-4.1737198E-4,1.9107899E-2,4.6933256E-2,3.183541E-2,-2.5840492E-3,-1.0668545E-1,6.9088796E-3,-2.0307586E-2,-2.9709458E-3,3.383182E-3,2.8312627E-2,-3.0125786E-2,8.057542E-3,1.2526139E-2,6.8863377E-4,-1.1945584E-1,-4.7837492E-2,1.575712E-3,-5.8007788E-2,2.552557E-2,4.4940945E-2,-1.1096328E-2,9.164521E-3,1.0911588E-2,-3.6374923E-2,-3.228259E-3,-6.389012E-2,-2.4370426E-2,-2.3577213E-3,-5.3551193E-2,-9.481751E-3],"categories":[],"categories_nodes":[],"categories_segments":[],"categories_sizes":[],"default_left":[0,0,0,0,0,0,0,0,0,0,0,0,0,0,0,0,0,0,0,0,0,0,0,0,0,0,0,0,0,0,0,0,0,0,0,0,0,0,0,0,0,0,0,0,0,0,0,0,0,0,0,0,0,0,0,0,0,0,0,0,0,0,0,0,0,0,0,0,0,0,0,0,0,0,0,0,0,0,0,0,0,0,0,0,0,0,0,0,0,0,0,0,0,0,0,0,0],"id":11,"left_children":[1,3,5,7,9,11,13,15,17,19,21,23,25,27,29,31,33,35,37,39,41,43,45,-1,-1,47,49,-1,-1,51,53,55,57,59,61,63,65,67,69,71,73,-1,75,77,79,81,83,85,87,89,91,-1,93,95,-1,-1,-1,-1,-1,-1,-1,-1,-1,-1,-1,-1,-1,-1,-1,-1,-1,-1,-1,-1,-1,-1,-1,-1,-1,-1,-1,-1,-1,-1,-1,-1,-1,-1,-1,-1,-1,-1,-1,-1,-1,-1,-1],"loss_changes":[4.9924426E0,4.773237E0,8.317831E0,6.5381494E0,1.1912631E1,3.2218027E0,6.1890125E0,6.7541533E0,2.036887E1,1.4544328E1,9.339262E0,7.395048E-1,4.6943445E0,2.074225E-1,4.384623E0,6.7227836E0,1.6529999E1,1.5335596E1,3.768324E0,1.2668755E1,8.14806E0,9.47476E0,1.0756367E1,0E0,0E0,1.1751518E0,2.756552E0,0E0,0E0,1.6505387E0,2.3416786E0,7.963623E0,1.3931047E1,1.8364637E1,8.441349E0,1.03691025E1,1.1772469E1,1.9296312E0,5.2988214E0,3.5057125E0,9.287405E0,0E0,9.555038E0,1.2872682E1,8.978128E0,1.3115501E0,9.202914E0,7.591677E-1,1.2665737E-1,1.8617102E0,1.8096151E0,0E0,7.32424E-1,2.4403605E0,0E0,0E0,0E0,0E0,0E0,0E0,0E0,0E0,0E0,0E0,0E0,0E0,0E0,0E0,0E0,0E0,0E0,0E0,0E0,0E0,0E0,0E0,0E0,0E0,0E0,0E0,0E0,0E0,0E0,0E0,0E0,0E0,0E0,0E0,0E0,0E0,0E0,0E0,0E0,0E0,0E0,0E0,0E0],"parents":[2147483647,0,0,1,1,2,2,3,3,4,4,5,5,6,6,7,7,8,8,9,9,10,10,11,11,12,12,13,13,14,14,15,15,16,16,17,17,18,18,19,19,20,20,21,21,22,22,25,25,26,26,29,29,30,30,31,31,32,32,33,33,34,34,35,35,36,36,37,37,38,38,39,39,40,40,42,42,43,43,44,44,45,45,46,46,47,47,48,48,49,49,50,50,52,52,53,53],"right_children":[2,4,6,8,10,12,14,16,18,20,22,24,26,28,30,32,34,36,38,40,42,44,46,-1,-1,48,50,-1,-1,52,54,56,58,60,62,64,66,68,70,72,74,-1,76,78,80,82,84,86,88,90,92,-1,94,96,-1,-1,-1,-1,-1,-1,-1,-1,-1,-1,-1,-1,-1,-1,-1,-1,-1,-1,-1,-1,-1,-1,-1,-1,-1,-1,-1,-1,-1,-1,-1,-1,-1,-1,-1,-1,-1,-1,-1,-1,-1,-1,-1],"split_conditions":[3.36022E1,1.7962381E1,3.4459616E2,3.1388073E1,1.060171E2,1.7348425E1,3.3084995E1,1.6912724E1,4.8E1,2.9935926E1,1.607986E2,8.383653E0,-4.6472317E-1,1.645211E1,1.359327E2,9.9E1,3.546049E-1,7.176904E1,-7.485108E-1,2.0116493E1,2.313271E1,9.065714E1,5.020455E-1,2.2823505E-2,4.6539575E-2,1.86E2,4.5E1,3.4076333E-2,1.5353034E-2,1.0610151E1,1.7707847E3,6.6316414E1,5.3185356E1,-8.2298386E-1,1.3261635E1,1E1,1.5E1,-8.85456E-1,6.033543E-1,9.355124E1,1.0202506E-1,-9.306916E-2,6.838634E1,5.309905E1,7.485108E-1,1.9895444E2,9.915375E-1,7.025411E-1,1.0052509E0,2.904109E2,3.2732804E0,2.6638607E-2,3.86837E2,1.7003687E2,-9.260525E-2,6.015639E-3,-9.769573E-4,-2.0758647E-2,1.1055004E-3,3.4916175E-3,-1.2202206E-2,-1.0269406E-2,5.685165E-3,1.644738E-3,-1.06423395E-2,2.2142852E-2,-4.1737198E-4,1.9107899E-2,4.6933256E-2,3.183541E-2,-2.5840492E-3,-1.0668545E-1,6.9088796E-3,-2.0307586E-2,-2.9709458E-3,3.383182E-3,2.8312627E-2,-3.0125786E-2,8.057542E-3,1.2526139E-2,6.8863377E-4,-1.1945584E-1,-4.7837492E-2,1.575712E-3,-5.8007788E-2,2.552557E-2,4.4940945E-2,-1.1096328E-2,9.164521E-3,1.0911588E-2,-3.6374923E-2,-3.228259E-3,-6.389012E-2,-2.4370426E-2,-2.3577213E-3,-5.3551193E-2,-9.481751E-3],"split_indices":[7,1,13,7,0,15,2,1,10,7,6,1,9,1,0,11,9,15,8,2,5,6,14,0,0,11,10,0,0,15,5,13,13,9,15,10,12,8,14,0,4,0,15,15,8,0,4,4,1,0,1,0,13,6,0,0,0,0,0,0,0,0,0,0,0,0,0,0,0,0,0,0,0,0,0,0,0,0,0,0,0,0,0,0,0,0,0,0,0,0,0,0,0,0,0,0,0],"split_type":[0,0,0,0,0,0,0,0,0,0,0,0,0,0,0,0,0,0,0,0,0,0,0,0,0,0,0,0,0,0,0,0,0,0,0,0,0,0,0,0,0,0,0,0,0,0,0,0,0,0,0,0,0,0,0,0,0,0,0,0,0,0,0,0,0,0,0,0,0,0,0,0,0,0,0,0,0,0,0,0,0,0,0,0,0,0,0,0,0,0,0,0,0,0,0,0,0],"sum_hessian":[1.1867413E5,1.1817466E5,4.9948062E2,1.0600384E5,1.2170812E4,3.154965E2,1.8398412E2,9.994599E4,6.057847E3,4.174202E3,7.9966094E3,6.808878E1,2.474077E2,3.7036537E1,1.4694759E2,9.392491E4,6.0210845E3,5.7676973E3,2.9014972E2,3.482633E3,6.9156903E2,3.6942004E3,4.302409E3,2.3078175E1,4.501061E1,1.347812E2,1.126265E2,2.6135406E1,1.0901131E1,9.0106026E1,5.6841557E1,4.6186934E4,4.7737977E4,3.6007002E3,2.4203845E3,4.105797E3,1.6619004E3,1.1135688E2,1.7879285E2,1.7713501E1,3.4649197E3,6.492895E0,6.850762E2,3.6378033E2,3.33042E3,1.369281E1,4.2887163E3,1.1078279E2,2.3998413E1,9.371209E1,1.8914412E1,1.5252803E1,7.4853226E1,5.078568E1,6.0558777E0,1.6895594E3,4.449737E4,2.922225E2,4.7445754E4,1.0535404E3,2.5471597E3,3.9558563E2,2.024799E3,8.7162E2,3.234177E3,2.7665808E2,1.3852423E3,4.1843353E1,6.951352E1,8.174443E1,9.704842E1,1.4563809E1,3.1496906E0,3.4201508E2,3.1229045E3,4.5311508E2,2.3196106E2,1.4813914E2,2.156412E2,2.4645835E3,8.658364E2,5.8524575E0,7.840352E0,4.2636353E3,2.5081244E1,8.028074E1,3.0502054E1,2.7161572E0,2.1282255E1,8.547672E1,8.235371E0,9.6968975E0,9.217514E0,2.0000118E1,5.4853107E1,2.2190092E1,2.8595587E1],"tree_param":{"num_deleted":"0","num_feature":"16","num_nodes":"97","size_leaf_vector":"1"}},{"base_weights":[-4.759312E-5,3.0618161E-2,-1.320266E-3,3.3953164E-2,-6.144246E-1,3.1648025E-2,-2.8164028E-3,-1.5787694E-1,4.259746E-2,4.496684E-2,-8.616982E-1,3.8069352E-3,1.4723775E-1,-8.759273E-2,-1.7917439E-3,-9.1703415E-2,-4.9720705E-1,1.3827945E-1,2.6241733E-2,-4.4476558E-2,-1.078877E-1,1.6263986E-1,-1.7211566E-2,1.9294502E-1,-3.7424874E-2,1.9008948E-1,-1.5464734E-1,-4.4429656E-3,2.0168338E-2,-4.9900746E-1,1.0228525E-2,-8.2983196E-2,-2.1172455E-1,-3.1156746E-1,1.6302374E-1,1.6758282E-1,1.4931305E-2,8.8531926E-2,3.5358E-1,-3.1137742E-2,1.6904625E-1,2.0917347E-1,-2.1246168E-1,4.1029376E-1,-1.5915613E-1,-4.7057007E-2,2.4566206E-1,-1.3324416E-1,-8.666758E-1,-8.437476E-3,1.2552226E-2,6.8767234E-3,8.634817E-2,-6.2293496E-2,-2.3237351E-2,1.2209036E-2,-1.6077613E-2,-1.0332298E-2,-3.0872285E-2,-1.6034028E-2,-6.40795E-2,1.7144805E-2,-1.0323737E-1,9.822169E-4,3.1065026E-2,2.3213953E-2,5.927944E-4,1.8652843E-2,-9.887402E-3,-5.4233786E-2,3.9000224E-2,-2.3521734E-3,-4.216334E-2,-1.1168089E-2,2.5893314E-2,1.0999213E-2,2.7561946E-2,-7.510409E-2,-1.4923245E-2,2.8935764E-2,5.9072554E-2,-5.6789904E-3,-6.9761686E-2,-3.5718046E-2,5.0705057E-3,-2.1585533E-2,2.7405439E-2,-1.9465916E-2,8.374053E-3,-1.0932171E-1,-4.020095E-2,-1.406183E-4,-3.1569325E-3,1.427556E-3,-4.0715992E-2,-1.8160535E-2,1.4282902E-3,3.3902887E-3,1.6960202E-2],"categories":[],"categories_nodes":[],"categories_segments":[],"categories_sizes":[],"default_left":[0,0,0,0,0,0,0,0,0,0,0,0,0,0,0,0,0,0,0,0,0,0,0,0,0,0,0,0,0,0,0,0,0,0,0,0,0,0,0,0,0,0,0,0,0,0,0,0,0,0,0,0,0,0,0,0,0,0,0,0,0,0,0,0,0,0,0,0,0,0,0,0,0,0,0,0,0,0,0,0,0,0,0,0,0,0,0,0,0,0,0,0,0,0,0,0,0,0,0],"id":12,"left_children":[1,3,5,7,9,11,13,15,17,-1,19,21,23,25,27,29,31,33,35,-1,-1,37,39,41,43,45,47,49,51,53,55,-1,57,59,61,63,65,67,69,71,73,75,77,79,81,83,85,87,89,91,93,95,97,-1,-1,-1,-1,-1,-1,-1,-1,-1,-1,-1,-1,-1,-1,-1,-1,-1,-1,-1,-1,-1,-1,-1,-1,-1,-1,-1,-1,-1,-1,-1,-1,-1,-1,-1,-1,-1,-1,-1,-1,-1,-1,-1,-1,-1,-1],"loss_changes":[4.6313167E0,1.0193224E1,5.6201596E0,7.8091908E0,6.8010006E0,1.5917379E1,9.467815E0,4.514956E0,7.0436134E0,0E0,1.3421297E0,1.3313848E1,8.110811E0,2.4265327E1,6.270118E0,7.1121535E0,2.9501038E0,7.365712E0,6.147449E0,0E0,0E0,6.563607E0,9.1412325E0,5.108818E0,1.0492927E1,3.3540516E0,1.5870804E1,6.523628E0,1.0204361E1,9.881401E-1,2.6574607E0,0E0,1.6847724E-1,1.6202478E0,6.4564133E0,6.428158E0,6.9665947E0,6.209084E0,4.4528923E0,9.738828E0,6.2157307E0,4.850662E0,9.137559E-1,7.2763824E-1,8.2917E0,1.5034025E0,2.7537117E0,1.3603092E1,2.7637882E0,1.2654926E1,1.3233395E1,1.3490209E1,8.465854E0,0E0,0E0,0E0,0E0,0E0,0E0,0E0,0E0,0E0,0E0,0E0,0E0,0E0,0E0,0E0,0E0,0E0,0E0,0E0,0E0,0E0,0E0,0E0,0E0,0E0,0E0,0E0,0E0,0E0,0E0,0E0,0E0,0E0,0E0,0E0,0E0,0E0,0E0,0E0,0E0,0E0,0E0,0E0,0E0,0E0,0E0],"parents":[2147483647,0,0,1,1,2,2,3,3,4,4,5,5,6,6,7,7,8,8,10,10,11,11,12,12,13,13,14,14,15,15,16,16,17,17,18,18,21,21,22,22,23,23,24,24,25,25,26,26,27,27,28,28,29,29,30,30,32,32,33,33,34,34,35,35,36,36,37,37,38,38,39,39,40,40,41,41,42,42,43,43,44,44,45,45,46,46,47,47,48,48,49,49,50,50,51,51,52,52],"right_children":[2,4,6,8,10,12,14,16,18,-1,20,22,24,26,28,30,32,34,36,-1,-1,38,40,42,44,46,48,50,52,54,56,-1,58,60,62,64,66,68,70,72,74,76,78,80,82,84,86,88,90,92,94,96,98,-1,-1,-1,-1,-1,-1,-1,-1,-1,-1,-1,-1,-1,-1,-1,-1,-1,-1,-1,-1,-1,-1,-1,-1,-1,-1,-1,-1,-1,-1,-1,-1,-1,-1,-1,-1,-1,-1,-1,-1,-1,-1,-1,-1,-1,-1],"split_conditions":[7.7557963E-1,9.947765E1,1.2793889E1,1.0281147E1,1.02125764E-1,3.2111164E1,1.58881855E1,8.2298386E-1,1.1796334E1,4.496684E-2,9.991709E2,1.1073555E1,7.746904E1,1.2194574E2,1.7962381E1,1.0609054E-1,9.127264E1,2.1269491E1,7.953002E1,-4.4476558E-2,-1.078877E-1,3.5301987E2,9.344152E-1,9.9270886E-1,3.279386E1,2.1539663E1,3.4536053E1,8.048261E1,3.009543E1,2.9796837E1,4.532835E0,-8.2983196E-2,4.1088244E-1,8.2399124E1,1.9E2,9.4E1,7E0,1.0558461E2,1.2265177E0,9.1444427E-1,6.72432E-1,9.442857E0,1.32285E-1,1.5188975E1,9.0915436E1,8.84429E1,1.0052509E0,2.9175486E1,3.4950905E1,6.1658512E1,9.9678055E1,3.9153874E-2,6.79648E1,-6.2293496E-2,-2.3237351E-2,1.2209036E-2,-1.6077613E-2,-1.0332298E-2,-3.0872285E-2,-1.6034028E-2,-6.40795E-2,1.7144805E-2,-1.0323737E-1,9.822169E-4,3.1065026E-2,2.3213953E-2,5.927944E-4,1.8652843E-2,-9.887402E-3,-5.4233786E-2,3.9000224E-2,-2.3521734E-3,-4.216334E-2,-1.1168089E-2,2.5893314E-2,1.0999213E-2,2.7561946E-2,-7.510409E-2,-1.4923245E-2,2.8935764E-2,5.9072554E-2,-5.6789904E-3,-6.9761686E-2,-3.5718046E-2,5.0705057E-3,-2.1585533E-2,2.7405439E-2,-1.9465916E-2,8.374053E-3,-1.0932171E-1,-4.020095E-2,-1.406183E-4,-3.1569325E-3,1.427556E-3,-4.0715992E-2,-1.8160535E-2,1.4282902E-3,3.3902887E-3,1.6960202E-2],"split_indices":[1,3,0,0,1,2,0,8,15,0,5,15,15,13,1,4,3,2,6,0,0,13,4,9,2,2,2,15,7,2,0,0,1,3,11,11,11,6,15,4,14,1,4,1,3,6,1,7,2,15,3,4,15,0,0,0,0,0,0,0,0,0,0,0,0,0,0,0,0,0,0,0,0,0,0,0,0,0,0,0,0,0,0,0,0,0,0,0,0,0,0,0,0,0,0,0,0,0,0],"split_type":[0,0,0,0,0,0,0,0,0,0,0,0,0,0,0,0,0,0,0,0,0,0,0,0,0,0,0,0,0,0,0,0,0,0,0,0,0,0,0,0,0,0,0,0,0,0,0,0,0,0,0,0,0,0,0,0,0,0,0,0,0,0,0,0,0,0,0,0,0,0,0,0,0,0,0,0,0,0,0,0,0,0,0,0,0,0,0,0,0,0,0,0,0,0,0,0,0,0,0],"sum_hessian":[1.1866608E5,4.7276514E3,1.1393843E5,4.704277E3,2.3374699E1,4.945311E3,1.0899312E5,2.0210037E2,4.5021763E3,4.253236E0,1.9121464E1,3.9862183E3,9.590928E2,1.3006167E3,1.076925E5,1.7018288E2,3.1917498E1,6.5615814E2,3.8460183E3,7.592862E0,1.1528601E1,4.6506558E2,3.5211526E3,7.6876495E2,1.9032782E2,2.5262546E2,1.0479912E3,9.609217E4,1.1600326E4,3.328515E1,1.3689772E2,1.386092E1,1.8056576E1,3.360649E1,6.2255164E2,2.8393976E2,3.5620786E3,3.360868E2,1.2897879E2,3.276972E3,2.4418073E2,7.396411E2,2.912383E1,4.0179626E1,1.501482E2,4.798992E1,2.0463553E2,1.018561E3,2.9430239E1,7.780546E4,1.8286713E4,9.661089E3,1.9392378E3,2.1811293E1,1.1473854E1,8.293334E1,5.3964386E1,9.502336E0,8.554241E0,2.4047535E1,9.558958E0,6.1904565E2,3.5060167E0,1.3554393E2,1.4839583E2,1.4078654E2,3.421292E3,2.2069026E2,1.1539653E2,4.4959755E0,1.2448282E2,3.2153223E3,6.1649605E1,5.916357E1,1.8501717E2,2.9779272E2,4.4184836E2,1.916999E0,2.7206831E1,2.5614773E1,1.4564854E1,1.27092285E2,2.305592E1,1.0866224E1,3.71237E1,1.1476838E1,1.9315869E2,7.939465E2,2.2461449E2,1.887521E1,1.0555029E1,5.9669137E4,1.8136324E4,1.8212898E4,7.381601E1,3.6437888E2,9.29671E3,1.1906205E3,7.486174E2],"tree_param":{"num_deleted":"0","num_feature":"16","num_nodes":"99","size_leaf_vector":"1"}},{"base_weights":[-4.946701E-5,4.3183606E-2,-9.3449024E-4,-3.3312872E-2,1.0198034E-1,1.3360253E-1,-1.3714544E-3,-1.1723503E-1,1.1701384E-1,-1.5875697E-1,1.2857337E-1,-1.0653279E-1,1.6010432E-1,-8.747222E-2,-7.2882685E-4,-2.0833984E-1,3.091804E-3,-7.718499E-2,1.597607E-1,-7.88252E-1,5.5560106E-3,-4.142332E-1,1.4014845E-1,-2.7157173E-1,1.9219676E-1,-5.1234167E-2,-5.936606E-1,2.1050884E-3,-1.8190812E-2,-1.7624353E-1,-9.6814835E-1,-3.8107315E-1,5.722633E-2,-1.5929326E-1,2.2898972E-1,-5.734865E-2,-8.826603E-2,3.6588454E-1,-1.6986229E-1,1.5423878E-3,-6.9663666E-2,1.5823492E-1,-1.4529036E-1,1.2632406E-2,-4.2007893E-1,2.1127188E-1,-5.893776E-2,-3.855472E-1,8.17869E-3,-2.786599E-1,-8.754146E-1,-2.663118E-3,4.195827E-2,-1.9225651E-1,-1.4925624E-2,2.9560137E-3,-2.910702E-2,-1.0740661E-1,-2.9049981E-2,-4.3574102E-2,-1.9241871E-2,1.4417437E-2,-1.2744802E-2,-6.569874E-2,2.1725982E-2,4.1644495E-2,1.6284158E-2,-9.876398E-2,4.708755E-2,-5.7511915E-2,-1.0974756E-2,1.6485235E-2,-6.1706424E-2,1.0025791E-2,-4.2433266E-2,1.0650741E-2,-4.85289E-3,-3.0215625E-2,-5.0141312E-2,2.4889676E-2,-6.378904E-3,-1.8931685E-2,-6.9627635E-2,4.0076636E-3,-4.628746E-2,-4.0666717E-3,-5.6177776E-2,-1.0199662E-1,-6.72956E-2,2.2940568E-3,-6.4132636E-4,2.8927415E-3,1.3267326E-2,3.9415404E-2,-2.4931373E-2,-8.9949445E-4,-1.0759471E-2],"categories":[],"categories_nodes":[],"categories_segments":[],"categories_sizes":[],"default_left":[0,0,0,0,0,0,0,0,0,0,0,0,0,0,0,0,0,0,0,0,0,0,0,0,0,0,0,0,0,0,0,0,0,0,0,0,0,0,0,0,0,0,0,0,0,0,0,0,0,0,0,0,0,0,0,0,0,0,0,0,0,0,0,0,0,0,0,0,0,0,0,0,0,0,0,0,0,0,0,0,0,0,0,0,0,0,0,0,0,0,0,0,0,0,0,0,0],"id":13,"left_children":[1,3,5,7,9,11,13,15,17,19,21,-1,23,25,27,29,31,-1,33,35,37,39,41,43,45,47,49,51,53,55,57,59,61,63,65,-1,-1,67,69,-1,-1,71,73,75,77,79,-1,81,83,85,87,89,91,93,95,-1,-1,-1,-1,-1,-1,-1,-1,-1,-1,-1,-1,-1,-1,-1,-1,-1,-1,-1,-1,-1,-1,-1,-1,-1,-1,-1,-1,-1,-1,-1,-1,-1,-1,-1,-1,-1,-1,-1,-1,-1,-1],"loss_changes":[4.540193E0,1.0709616E1,6.8359985E0,1.3073857E1,9.354188E0,1.2131889E1,6.4129844E0,7.288906E0,1.4234356E1,1.293722E1,7.736496E0,0E0,5.166651E0,1.5720066E1,5.6931934E0,9.056967E0,6.0000668E0,0E0,7.8813734E0,1.8707275E-2,6.3922105E0,3.1374903E0,6.204279E0,1.1010444E0,5.2563505E0,1.5940451E1,4.8388996E0,1.8809721E1,9.127228E0,8.616886E0,7.727499E-1,2.8367424E-1,4.078055E0,1.2120874E1,3.5560837E0,0E0,0E0,5.1699142E0,1.5944293E0,0E0,0E0,5.880972E0,4.9667897E0,6.1899535E-2,1.23176575E-2,3.5009909E0,0E0,7.2521534E0,1.027027E1,1.8979266E0,1.8465042E-1,8.488762E0,1.2499563E1,9.992147E0,8.665694E0,0E0,0E0,0E0,0E0,0E0,0E0,0E0,0E0,0E0,0E0,0E0,0E0,0E0,0E0,0E0,0E0,0E0,0E0,0E0,0E0,0E0,0E0,0E0,0E0,0E0,0E0,0E0,0E0,0E0,0E0,0E0,0E0,0E0,0E0,0E0,0E0,0E0,0E0,0E0,0E0,0E0,0E0],"parents":[2147483647,0,0,1,1,2,2,3,3,4,4,5,5,6,6,7,7,8,8,9,9,10,10,12,12,13,13,14,14,15,15,16,16,18,18,19,19,20,20,21,21,22,22,23,23,24,24,25,25,26,26,27,27,28,28,29,29,30,30,31,31,32,32,33,33,34,34,37,37,38,38,41,41,42,42,43,43,44,44,45,45,47,47,48,48,49,49,50,50,51,51,52,52,53,53,54,54],"right_children":[2,4,6,8,10,12,14,16,18,20,22,-1,24,26,28,30,32,-1,34,36,38,40,42,44,46,48,50,52,54,56,58,60,62,64,66,-1,-1,68,70,-1,-1,72,74,76,78,80,-1,82,84,86,88,90,92,94,96,-1,-1,-1,-1,-1,-1,-1,-1,-1,-1,-1,-1,-1,-1,-1,-1,-1,-1,-1,-1,-1,-1,-1,-1,-1,-1,-1,-1,-1,-1,-1,-1,-1,-1,-1,-1,-1,-1,-1,-1,-1,-1],"split_conditions":[2.0305395E1,2.461002E1,2.1451914E1,6.6603094E-1,-9.350162E-1,3.20969E-2,2.041873E1,1.7342392E2,2.1451914E1,5.837396E-1,3.7983918E0,-1.0653279E-1,1E1,9.9270886E-1,1.717953E3,9.5649864E1,-8.2298386E-1,-7.718499E-2,2.2E1,1.0266747E1,6.8155704E0,2.0475126E1,9.356999E1,1.281771E2,1E0,9E0,5.792469E-1,1.5385347E3,-9.9270886E-1,1.0637794E2,9.355124E1,2.6518533E2,2.3769249E1,2.0116493E1,1E1,-5.734865E-2,-8.826603E-2,2.5517106E0,2.5955713E1,1.5423878E-3,-6.9663666E-2,1.9299597E3,4.9E1,2.0864117E1,1.359327E2,8.1E1,-5.893776E-2,1.03E2,1.8295101E1,1.5879952E0,8.869477E-1,2.6E1,9.350162E-1,1E0,9.382755E-1,2.9560137E-3,-2.910702E-2,-1.0740661E-1,-2.9049981E-2,-4.3574102E-2,-1.9241871E-2,1.4417437E-2,-1.2744802E-2,-6.569874E-2,2.1725982E-2,4.1644495E-2,1.6284158E-2,-9.876398E-2,4.708755E-2,-5.7511915E-2,-1.0974756E-2,1.6485235E-2,-6.1706424E-2,1.0025791E-2,-4.2433266E-2,1.0650741E-2,-4.85289E-3,-3.0215625E-2,-5.0141312E-2,2.4889676E-2,-6.378904E-3,-1.8931685E-2,-6.9627635E-2,4.0076636E-3,-4.628746E-2,-4.0666717E-3,-5.6177776E-2,-1.0199662E-1,-6.72956E-2,2.2940568E-3,-6.4132636E-4,2.8927415E-3,1.3267326E-2,3.9415404E-2,-2.4931373E-2,-8.9949445E-4,-1.0759471E-2],"split_indices":[2,7,7,4,9,4,2,0,7,14,15,0,12,8,5,3,9,0,12,1,1,0,15,0,9,10,4,5,8,6,0,0,7,2,10,0,0,1,0,0,0,5,12,2,0,12,0,11,1,1,4,11,8,10,4,0,0,0,0,0,0,0,0,0,0,0,0,0,0,0,0,0,0,0,0,0,0,0,0,0,0,0,0,0,0,0,0,0,0,0,0,0,0,0,0,0,0],"split_type":[0,0,0,0,0,0,0,0,0,0,0,0,0,0,0,0,0,0,0,0,0,0,0,0,0,0,0,0,0,0,0,0,0,0,0,0,0,0,0,0,0,0,0,0,0,0,0,0,0,0,0,0,0,0,0,0,0,0,0,0,0,0,0,0,0,0,0,0,0,0,0,0,0,0,0,0,0,0,0,0,0,0,0,0,0,0,0,0,0,0,0,0,0,0,0,0,0],"sum_hessian":[1.1865772E5,2.3793535E3,1.1627837E5,1.0342256E3,1.3451279E3,3.7545248E2,1.15902914E5,6.6384454E2,3.7038107E2,1.2403446E2,1.2210934E3,7.2719946E0,3.6818048E2,8.5765125E2,1.15045266E5,3.7738104E2,2.8646347E2,1.6212275E1,3.5416882E2,2.4888302E1,9.914616E1,2.4769184E1,1.1963242E3,2.4961441E1,3.4321906E2,8.0138153E2,5.6269733E1,9.898226E4,1.6063006E4,3.6326764E2,1.41134205E1,3.463528E1,2.518282E2,6.291467E1,2.9125415E2,9.760065E0,1.5128236E1,3.2107674E1,6.703849E1,1.0198404E1,1.457078E1,1.1254567E3,7.086757E1,8.880813E0,1.6080627E1,3.357543E2,7.4647408E0,1.2009937E2,6.8128217E2,2.7506508E1,2.8763226E1,8.840593E4,1.0576333E4,2.9470197E2,1.5768304E4,1.3036221E2,2.3290543E2,1.1699739E1,2.4136806E0,2.5838211E1,8.79707E0,1.7136551E2,8.0462685E1,2.6777641E1,3.613703E1,7.458742E1,2.1666672E2,1.7060951E0,3.0401577E1,7.5530963E0,5.948539E1,1.1167125E3,8.744096E0,3.803697E1,3.2830605E1,3.210964E0,5.6698484E0,8.488518E0,7.5921106E0,2.9543732E2,4.0316986E1,7.45985E1,4.5500866E1,6.389311E2,4.2351078E1,1.5565528E1,1.194098E1,1.442567E1,1.4337557E1,1.1293785E4,7.711214E4,9.249061E3,1.3272728E3,2.5607775E1,2.6909418E2,1.4820887E4,9.4741705E2],"tree_param":{"num_deleted":"0","num_feature":"16","num_nodes":"97","size_leaf_vector":"1"}},{"base_weights":[-5.6238037E-5,-6.993233E-2,4.6531658E-4,-9.8637156E-2,-6.167312E-2,3.4284124E-3,-1.2445672E-2,-3.004006E-2,-2.539119E-1,-5.3170966E-3,1.31667415E-2,-2.6457679E-2,5.441518E-2,2.259628E-1,-6.168491E-2,-1.9563714E-1,-1.377907E-1,3.8589355E-2,-1.0086471E-2,2.315083E-2,-3.9524646E-3,-2.1557217E-2,-1.3108371E-1,-4.78375E-2,7.8964986E-2,-1.6150656E-1,3.3523935E-1,-2.708278E-1,-1.7666819E-2,-3.2073736E-1,-5.3163383E-2,-1.5989721E-1,5.2639347E-2,-7.4038886E-2,-6.339662E-3,-2.3957876E-2,3.2063432E-2,-1.8797953E-2,3.7778143E-2,3.1315267E-2,-3.3572156E-2,5.4449927E-2,-2.8567472E-1,-1.1930573E-1,-3.7299823E-2,-2.2007863E-1,8.856496E-2,-1.0302136E-2,-2.039511E-2,4.0527917E-2,6.7656413E-3,-1.1795912E-1,-2.1180866E-2,1.1007267E-2,-1.2200736E-2,-1.2434267E-2,-4.967437E-2,-1.5281439E-2,1.7601555E-2,-9.1372244E-2,-1.2574354E-2,-6.4176167E-3,6.5727383E-3,1.534991E-2,-9.582942E-3,-1.461315E-3,1.9610624E-3,-1.2903693E-2,1.4661443E-4,3.8344727E-3,-2.331804E-3,7.225144E-3,-2.8490594E-3,8.3220965E-4,1.2041746E-2,3.823336E-3,-2.8687084E-2,4.7610872E-3,-4.38304E-3,8.9788325E-3,-8.144256E-2,-4.306532E-3,-4.555149E-2,-1.8961092E-2,1.303641E-3,2.9708985E-2,-3.9365113E-2,3.0742818E-3,1.400733E-2],"categories":[],"categories_nodes":[],"categories_segments":[],"categories_sizes":[],"default_left":[0,0,0,0,0,0,0,0,0,0,0,0,0,0,0,0,0,0,0,0,0,0,0,0,0,0,0,0,0,0,0,0,0,0,0,0,0,0,0,0,0,0,0,0,0,0,0,0,0,0,0,0,0,0,0,0,0,0,0,0,0,0,0,0,0,0,0,0,0,0,0,0,0,0,0,0,0,0,0,0,0,0,0,0,0,0,0,0,0],"id":14,"left_children":[1,3,5,-1,7,9,11,13,15,17,19,21,23,25,27,29,-1,31,33,35,37,39,41,43,45,47,49,51,53,55,57,59,61,63,65,67,69,71,73,75,77,79,81,-1,83,85,87,-1,-1,-1,-1,-1,-1,-1,-1,-1,-1,-1,-1,-1,-1,-1,-1,-1,-1,-1,-1,-1,-1,-1,-1,-1,-1,-1,-1,-1,-1,-1,-1,-1,-1,-1,-1,-1,-1,-1,-1,-1,-1],"loss_changes":[4.324164E0,6.592778E0,4.505613E0,0E0,5.296728E0,8.15816E0,2.0597214E1,6.0910463E0,7.794681E0,1.0568737E1,7.7466106E0,9.316141E0,9.566097E0,3.5574865E0,6.1486554E0,2.0899396E0,0E0,1.379926E1,1.0907866E1,1.2020205E1,1.0344325E1,1.1031492E1,2.3334587E1,8.863107E0,8.839024E0,2.5847316E-2,1.1882253E0,5.979765E0,7.387525E0,2.1071634E0,1.3165087E0,8.308031E0,7.066202E0,1.2506466E1,9.233545E0,1.2168901E1,8.375172E0,1.0871006E1,1.0664436E1,7.0894485E0,1.17853E1,1.1445214E1,1.8261093E1,0E0,5.6177897E0,8.720327E0,8.863047E0,0E0,0E0,0E0,0E0,0E0,0E0,0E0,0E0,0E0,0E0,0E0,0E0,0E0,0E0,0E0,0E0,0E0,0E0,0E0,0E0,0E0,0E0,0E0,0E0,0E0,0E0,0E0,0E0,0E0,0E0,0E0,0E0,0E0,0E0,0E0,0E0,0E0,0E0,0E0,0E0,0E0,0E0],"parents":[2147483647,0,0,1,1,2,2,4,4,5,5,6,6,7,7,8,8,9,9,10,10,11,11,12,12,13,13,14,14,15,15,17,17,18,18,19,19,20,20,21,21,22,22,23,23,24,24,25,25,26,26,27,27,28,28,29,29,30,30,31,31,32,32,33,33,34,34,35,35,36,36,37,37,38,38,39,39,40,40,41,41,42,42,44,44,45,45,46,46],"right_children":[2,4,6,-1,8,10,12,14,16,18,20,22,24,26,28,30,-1,32,34,36,38,40,42,44,46,48,50,52,54,56,58,60,62,64,66,68,70,72,74,76,78,80,82,-1,84,86,88,-1,-1,-1,-1,-1,-1,-1,-1,-1,-1,-1,-1,-1,-1,-1,-1,-1,-1,-1,-1,-1,-1,-1,-1,-1,-1,-1,-1,-1,-1,-1,-1,-1,-1,-1,-1,-1,-1,-1,-1,-1,-1],"split_conditions":[9.295723E-3,5.3185356E1,2.4368007E2,-9.8637156E-2,9.232515E-1,2.768733E1,4.2057224E2,2.3550352E1,4.743336E2,6.421564E1,2.985997E1,1.9010566E3,2.5555547E2,5.2951355E2,1.1060448E2,4.4422165E1,-1.377907E-1,6E0,-9.7094184E-1,1.613121E1,1.4975849E1,-8.2298386E-1,2.1451436E2,-9.9270886E-1,1.1525935E2,6.6863014E1,8.514839E1,6.131441E1,1.2355154E2,4.9E1,2.946104E1,1.4842192E1,1.793076E2,1.5316443E0,1.8509343E2,1.3735808E2,9.536895E1,1.669103E0,7.4E1,1.97E2,2.1618006E1,9.4187105E-1,7.017804E-1,-1.1930573E-1,3.688586E2,2.4454098E1,5.2E1,-1.0302136E-2,-2.039511E-2,4.0527917E-2,6.7656413E-3,-1.1795912E-1,-2.1180866E-2,1.1007267E-2,-1.2200736E-2,-1.2434267E-2,-4.967437E-2,-1.5281439E-2,1.7601555E-2,-9.1372244E-2,-1.2574354E-2,-6.4176167E-3,6.5727383E-3,1.534991E-2,-9.582942E-3,-1.461315E-3,1.9610624E-3,-1.2903693E-2,1.4661443E-4,3.8344727E-3,-2.331804E-3,7.225144E-3,-2.8490594E-3,8.3220965E-4,1.2041746E-2,3.823336E-3,-2.8687084E-2,4.7610872E-3,-4.38304E-3,8.9788325E-3,-8.144256E-2,-4.306532E-3,-4.555149E-2,-1.8961092E-2,1.303641E-3,2.9708985E-2,-3.9365113E-2,3.0742818E-3,1.400733E-2],"split_indices":[4,13,0,0,14,7,13,7,13,3,7,5,0,5,6,15,0,12,8,15,1,8,13,8,6,0,3,3,0,11,2,0,5,1,0,13,3,1,12,11,2,4,14,0,5,7,12,0,0,0,0,0,0,0,0,0,0,0,0,0,0,0,0,0,0,0,0,0,0,0,0,0,0,0,0,0,0,0,0,0,0,0,0,0,0,0,0,0,0],"split_type":[0,0,0,0,0,0,0,0,0,0,0,0,0,0,0,0,0,0,0,0,0,0,0,0,0,0,0,0,0,0,0,0,0,0,0,0,0,0,0,0,0,0,0,0,0,0,0,0,0,0,0,0,0,0,0,0,0,0,0,0,0,0,0,0,0,0,0,0,0,0,0,0,0,0,0,0,0,0,0,0,0,0,0,0,0,0,0,0,0],"sum_hessian":[1.1864974E5,8.7805365E2,1.1777169E5,6.784823E0,8.7126886E2,9.578873E4,2.1982957E4,7.491516E2,1.2211727E2,5.046715E4,4.5321582E4,1.8174695E4,3.8082603E3,8.174052E1,6.674111E2,1.1721422E2,4.903048E0,4.9441978E3,4.5522953E4,2.862617E4,1.6695412E4,1.7362672E4,8.120246E2,7.371208E2,3.0711396E3,1.7876528E1,6.386399E1,1.1514947E2,5.522616E2,6.1746235E1,5.5467987E1,3.261561E2,4.6180415E3,2.5184265E3,4.3004523E4,4.553957E3,2.4072213E4,1.2314964E4,4.3804473E3,3.2146777E3,1.4147994E4,3.6937E2,4.426546E2,5.6975784E0,7.314232E2,9.484204E1,2.9762976E3,8.958971E0,8.917557E0,5.0207573E1,1.365642E1,5.8643885E0,1.0928508E2,2.4826584E2,3.0399576E2,2.998938E1,3.1756855E1,3.8890797E1,1.6577188E1,1.30204735E1,3.1313562E2,4.6488345E2,4.153158E3,2.1957436E2,2.298852E3,3.2608648E4,1.0395876E4,8.8638745E2,3.6675696E3,2.1620367E4,2.4518457E3,1.1842322E3,1.1130732E4,3.2301794E3,1.150268E3,3.1471316E3,6.754598E1,1.5867692E3,1.2561225E4,3.5579593E2,1.3574065E1,1.8279433E2,2.598603E2,1.8099333E2,5.504299E2,2.3653517E1,7.118852E1,1.4029609E3,1.5733365E3],"tree_param":{"num_deleted":"0","num_feature":"16","num_nodes":"89","size_leaf_vector":"1"}},{"base_weights":[-5.8107184E-5,9.0991E-2,-4.4494032E-4,1.06026E-1,-1.0981647E-1,-7.701948E-2,1.3465722E-4,2.50966E-1,2.9548135E-2,-2.9067543E-1,-7.4405335E-3,-1.2126017E-3,2.9526703E-2,3.1271258E-1,7.4649274E-2,1.00885294E-1,-3.8196397E-1,-5.0782746E-1,-7.836691E-2,3.5333964E-3,-1.2343711E-1,1.2388495E-2,-4.8987973E-3,5.7181627E-2,-3.858327E-2,1.2624535E-1,3.497796E-2,-2.8182035E-2,1.5401419E-1,1.2528022E-1,-5.160633E-1,-6.2116617E-3,-4.907482E-1,-6.562667E-1,-2.3972191E-1,-4.2785644E-3,-9.980329E-2,-5.1437095E-2,1.8985258E-1,8.586148E-3,1.4288832E-1,-2.6452027E-2,3.5748433E-4,-2.8517112E-2,8.264931E-2,-7.22129E-2,1.7316379E-1,3.931342E-3,1.929611E-2,2.9235892E-3,-8.522226E-3,7.859194E-3,1.9838583E-2,-1.1656447E-3,2.0067466E-2,-8.379103E-2,-3.589754E-2,-6.350409E-2,-3.7052386E-2,-3.585988E-2,-7.8517705E-2,-9.803195E-4,-6.4960755E-2,6.0503134E-3,-9.7889E-2,1.0459616E-4,-3.0508503E-2,-7.0587243E-3,2.6570564E-2,2.015922E-3,-2.6297923E-3,3.794132E-2,1.0332391E-2,1.3044085E-4,-5.9896274E-3,-5.9821707E-4,1.6548674E-3,7.3206173E-3,-1.870882E-2,5.7304604E-3,1.9798486E-2,-4.7979024E-3,-3.671473E-2,4.0927175E-3,3.930493E-2],"categories":[],"categories_nodes":[],"categories_segments":[],"categories_sizes":[],"default_left":[0,0,0,0,0,0,0,0,0,0,0,0,0,0,0,0,0,0,0,0,0,0,0,0,0,0,0,0,0,0,0,0,0,0,0,0,0,0,0,0,0,0,0,0,0,0,0,0,0,0,0,0,0,0,0,0,0,0,0,0,0,0,0,0,0,0,0,0,0,0,0,0,0,0,0,0,0,0,0,0,0,0,0,0,0],"id":15,"left_children":[1,3,5,7,-1,9,11,13,15,17,19,21,23,25,27,29,31,33,35,37,-1,39,41,43,45,47,-1,49,51,53,55,-1,57,59,61,63,-1,65,67,69,71,73,75,77,79,81,83,-1,-1,-1,-1,-1,-1,-1,-1,-1,-1,-1,-1,-1,-1,-1,-1,-1,-1,-1,-1,-1,-1,-1,-1,-1,-1,-1,-1,-1,-1,-1,-1,-1,-1,-1,-1,-1,-1],"loss_changes":[4.178697E0,9.090526E0,5.2433825E0,5.497037E0,0E0,1.319136E1,4.6431518E0,1.8425255E0,9.614349E0,1.0010477E1,9.032195E0,5.621148E0,9.682135E0,8.310118E-1,3.7784585E-1,4.260606E0,1.6536207E0,4.1243114E0,7.586772E0,6.82644E0,0E0,1.1861549E1,9.993324E0,7.9805603E0,1.0584798E1,1.2326285E-1,0E0,7.0552215E-2,7.1369946E-2,2.779498E0,2.4523282E-1,0E0,3.8873768E-1,2.3535194E0,3.7551987E0,6.6322637E0,0E0,6.852345E0,3.0183816E0,9.37933E0,6.2941523E0,1.6054466E1,7.279447E0,1.3534012E1,8.226847E0,9.144617E0,5.908998E0,0E0,0E0,0E0,0E0,0E0,0E0,0E0,0E0,0E0,0E0,0E0,0E0,0E0,0E0,0E0,0E0,0E0,0E0,0E0,0E0,0E0,0E0,0E0,0E0,0E0,0E0,0E0,0E0,0E0,0E0,0E0,0E0,0E0,0E0,0E0,0E0,0E0,0E0],"parents":[2147483647,0,0,1,1,2,2,3,3,5,5,6,6,7,7,8,8,9,9,10,10,11,11,12,12,13,13,14,14,15,15,16,16,17,17,18,18,19,19,21,21,22,22,23,23,24,24,25,25,27,27,28,28,29,29,30,30,32,32,33,33,34,34,35,35,37,37,38,38,39,39,40,40,41,41,42,42,43,43,44,44,45,45,46,46],"right_children":[2,4,6,8,-1,10,12,14,16,18,20,22,24,26,28,30,32,34,36,38,-1,40,42,44,46,48,-1,50,52,54,56,-1,58,60,62,64,-1,66,68,70,72,74,76,78,80,82,84,-1,-1,-1,-1,-1,-1,-1,-1,-1,-1,-1,-1,-1,-1,-1,-1,-1,-1,-1,-1,-1,-1,-1,-1,-1,-1,-1,-1,-1,-1,-1,-1,-1,-1,-1,-1,-1,-1],"split_conditions":[2.700179E1,9.743214E-1,4.0343872E1,2.9E1,-1.0981647E-1,1.7126783E1,9.7864574E-1,1.56E2,3.1979298E1,1.1689788E3,9.937364E-1,6.571982E1,6.6312265E-1,2.368711E1,4.3921536E-1,4.5530072E2,1.0209961E1,2.8100552E1,2.954981E1,1.71E2,-1.2343711E-1,3.2235134E1,1.1252842E2,7.632624E1,4.224916E2,1.0281147E1,3.497796E-2,2.2403998E0,1.0281147E1,7.772638E1,2.2403998E0,-6.2116617E-3,2.7216019E1,5.0354422E2,5.875545E0,9.886058E1,-9.980329E-2,9.350162E-1,-8.2298386E-1,1.4815928E1,3.2377796E1,5.4E1,3.7470813E2,2.8518795E1,7.860747E-1,3.9923288E2,1.8496063E2,3.931342E-3,1.929611E-2,2.9235892E-3,-8.522226E-3,7.859194E-3,1.9838583E-2,-1.1656447E-3,2.0067466E-2,-8.379103E-2,-3.589754E-2,-6.350409E-2,-3.7052386E-2,-3.585988E-2,-7.8517705E-2,-9.803195E-4,-6.4960755E-2,6.0503134E-3,-9.7889E-2,1.0459616E-4,-3.0508503E-2,-7.0587243E-3,2.6570564E-2,2.015922E-3,-2.6297923E-3,3.794132E-2,1.0332391E-2,1.3044085E-4,-5.9896274E-3,-5.9821707E-4,1.6548674E-3,7.3206173E-3,-1.870882E-2,5.7304604E-3,1.9798486E-2,-4.7979024E-3,-3.671473E-2,4.0927175E-3,3.930493E-2],"split_indices":[6,14,6,12,0,0,14,11,0,5,14,0,8,7,4,13,15,7,7,11,0,7,0,0,13,0,0,0,0,3,0,0,7,5,1,3,0,9,8,1,7,12,13,7,4,13,6,0,0,0,0,0,0,0,0,0,0,0,0,0,0,0,0,0,0,0,0,0,0,0,0,0,0,0,0,0,0,0,0,0,0,0,0,0,0],"split_type":[0,0,0,0,0,0,0,0,0,0,0,0,0,0,0,0,0,0,0,0,0,0,0,0,0,0,0,0,0,0,0,0,0,0,0,0,0,0,0,0,0,0,0,0,0,0,0,0,0,0,0,0,0,0,0,0,0,0,0,0,0,0,0,0,0,0,0,0,0,0,0,0,0,0,0,0,0,0,0,0,0,0,0,0,0],"sum_hessian":[1.18640695E5,5.009359E2,1.1813976E5,4.955809E2,5.355002E0,8.864991E2,1.1725326E5,1.703859E2,3.25195E2,2.1699506E2,6.69504E2,1.1211513E5,5.1381226E3,1.25619896E2,4.4766003E1,2.7779333E2,4.740167E1,1.0658577E2,1.1040929E2,6.645572E2,4.9468217E0,2.3905977E4,8.820916E4,3.6544531E3,1.4836696E3,2.15612E1,1.040587E2,1.9781052E1,2.4984951E1,2.6799347E2,9.79986E0,1.2428982E1,3.4972687E1,6.767117E1,3.8914597E1,1.0310758E2,7.3017015E0,5.137171E2,1.5084007E2,2.323019E4,6.757875E2,1.7293525E4,7.091563E4,8.3719006E2,2.8172632E3,1.2808967E3,2.0277277E2,1.0052223E1,1.1508977E1,1.0100809E1,9.6802435E0,1.028088E1,1.4704072E1,9.545919E1,1.7253429E2,1.792763E0,8.007097E0,1.3949011E1,2.1023678E1,2.159281E1,4.6078365E1,2.5586294E1,1.33283E1,9.7560715E1,5.5468674E0,4.2647064E2,8.724645E1,3.403863E1,1.16801445E2,1.7443566E4,5.7866216E3,9.561141E1,5.801761E2,9.450893E3,7.842633E3,5.096208E4,1.9953555E4,5.1034335E2,3.268467E2,2.310937E3,5.0632614E2,1.184715E3,9.618178E1,1.27363785E2,7.540898E1],"tree_param":{"num_deleted":"0","num_feature":"16","num_nodes":"85","size_leaf_vector":"1"}},{"base_weights":[-5.864082E-5,2.8354436E-2,-1.2323199E-3,8.788857E-2,-1.2994952E-2,-3.303083E-2,6.481834E-4,-1.12696104E-1,1.2204886E-1,-1.00111544E-1,1.8131694E-2,-4.4436342E-1,-2.782124E-2,-5.1943312E-5,9.037466E-2,-2.1604012E-1,3.034783E-1,-6.296545E-2,1.3000175E-1,-4.7131507E-3,-2.2072758E-1,5.8910124E-2,-4.6097115E-2,-6.426852E-1,-5.579981E-2,1.6975226E-2,-7.313629E-2,1.523671E-3,-3.6578454E-2,1.196223E-1,-6.437044E-1,-4.8232064E-1,-2.115211E-2,2.2924367E-1,3.798693E-2,2.2119704E-1,9.2788026E-2,2.558679E-1,-9.612766E-2,-1.0092926E-1,-1.9733967E-1,2.3319487E-2,2.5230616E-1,1.1023073E-1,-9.5290825E-2,-3.1152183E-1,-7.839524E-1,2.874125E-2,-1.8846586E-1,2.8533615E-2,-5.217647E-1,-3.8870957E-1,-6.132032E-2,-2.2996925E-3,1.6929792E-2,3.6284156E-2,-8.217034E-2,1.7168677E-1,-1.0211547E-1,-4.227775E-2,-8.263194E-2,-2.510112E-3,-7.311898E-2,-1.77119E-2,1.120483E-2,2.4774697E-2,4.6815216E-3,3.268499E-2,1.0071703E-2,7.200483E-3,3.2359924E-2,3.5593987E-2,-2.6851257E-2,-2.868262E-2,1.2411605E-2,-1.01411484E-1,-1.7298736E-2,-4.7651443E-4,1.792677E-2,2.9671384E-2,-8.57226E-2,2.3662908E-2,-1.1975936E-2,-2.0351125E-2,1.3592668E-3,-4.0511787E-2,-1.00318445E-2,-9.429734E-2,-6.5312125E-2,-6.333828E-2,-4.105184E-3,-4.4553082E-2,3.7659623E-3,-8.299912E-2,-1.755268E-2,-2.469852E-2,-9.2714414E-2,-9.106516E-3,5.46071E-3,-1.4404767E-3,6.091232E-4,5.3248936E-3,-7.461707E-4,-1.7356988E-2,6.6633294E-3,1.0825899E-2,-1.12274615E-2,2.093407E-2,-1.2853456E-2,-3.3000227E-2,-2.312503E-3],"categories":[],"categories_nodes":[],"categories_segments":[],"categories_sizes":[],"default_left":[0,0,0,0,0,0,0,0,0,0,0,0,0,0,0,0,0,0,0,0,0,0,0,0,0,0,0,0,0,0,0,0,0,0,0,0,0,0,0,0,0,0,0,0,0,0,0,0,0,0,0,0,0,0,0,0,0,0,0,0,0,0,0,0,0,0,0,0,0,0,0,0,0,0,0,0,0,0,0,0,0,0,0,0,0,0,0,0,0,0,0,0,0,0,0,0,0,0,0,0,0,0,0,0,0,0,0,0,0,0,0],"id":16,"left_children":[1,3,5,7,9,11,13,15,17,19,21,23,25,27,29,31,33,-1,35,37,39,41,43,45,47,49,51,53,55,57,59,61,63,65,-1,67,69,71,73,-1,75,77,79,81,83,85,87,-1,89,91,93,95,97,99,101,103,105,107,109,-1,-1,-1,-1,-1,-1,-1,-1,-1,-1,-1,-1,-1,-1,-1,-1,-1,-1,-1,-1,-1,-1,-1,-1,-1,-1,-1,-1,-1,-1,-1,-1,-1,-1,-1,-1,-1,-1,-1,-1,-1,-1,-1,-1,-1,-1,-1,-1,-1,-1,-1,-1],"loss_changes":[3.9562752E0,1.1586409E1,6.812741E0,1.3231823E1,7.535131E0,1.3619405E1,6.7575393E0,1.2161464E1,9.93894E0,8.415742E0,5.365835E0,6.0900097E0,1.275534E1,6.143014E0,1.7958555E1,1.17117815E1,2.325325E-1,0E0,5.5193787E0,9.778206E0,5.7582426E0,8.618008E0,6.1300693E0,2.213562E0,1.3271663E0,1.9694376E1,1.1623404E1,6.02732E0,1.4665764E1,9.273934E0,9.4444275E-1,1.0838123E1,2.751106E0,9.340036E-2,0E0,5.979744E0,5.546216E0,5.690036E0,1.279717E1,0E0,6.089204E0,4.640217E0,9.844299E0,5.5788527E0,7.1413074E0,3.027041E-1,1.3658142E-1,0E0,1.3360934E0,1.3406435E1,6.9438877E0,8.359436E0,1.0391204E1,8.327118E0,1.8023811E1,1.0835897E1,1.5578558E1,7.3714523E0,2.7481308E0,0E0,0E0,0E0,0E0,0E0,0E0,0E0,0E0,0E0,0E0,0E0,0E0,0E0,0E0,0E0,0E0,0E0,0E0,0E0,0E0,0E0,0E0,0E0,0E0,0E0,0E0,0E0,0E0,0E0,0E0,0E0,0E0,0E0,0E0,0E0,0E0,0E0,0E0,0E0,0E0,0E0,0E0,0E0,0E0,0E0,0E0,0E0,0E0,0E0,0E0,0E0,0E0],"parents":[2147483647,0,0,1,1,2,2,3,3,4,4,5,5,6,6,7,7,8,8,9,9,10,10,11,11,12,12,13,13,14,14,15,15,16,16,18,18,19,19,20,20,21,21,22,22,23,23,24,24,25,25,26,26,27,27,28,28,29,29,30,30,31,31,32,32,33,33,35,35,36,36,37,37,38,38,40,40,41,41,42,42,43,43,44,44,45,45,46,46,48,48,49,49,50,50,51,51,52,52,53,53,54,54,55,55,56,56,57,57,58,58],"right_children":[2,4,6,8,10,12,14,16,18,20,22,24,26,28,30,32,34,-1,36,38,40,42,44,46,48,50,52,54,56,58,60,62,64,66,-1,68,70,72,74,-1,76,78,80,82,84,86,88,-1,90,92,94,96,98,100,102,104,106,108,110,-1,-1,-1,-1,-1,-1,-1,-1,-1,-1,-1,-1,-1,-1,-1,-1,-1,-1,-1,-1,-1,-1,-1,-1,-1,-1,-1,-1,-1,-1,-1,-1,-1,-1,-1,-1,-1,-1,-1,-1,-1,-1,-1,-1,-1,-1,-1,-1,-1,-1,-1,-1],"split_conditions":[6.6316414E1,7.591048E1,9.233715E1,6.2707203E1,5.4907253E1,4E0,1.9835205E3,6.6312265E-1,5.158113E-1,1.5866695E2,9.026705E1,4.6472317E-1,7.340991E-1,1.9010566E3,2.2977557E2,1.0974846E3,2.8262968E1,-6.296545E-2,3.6461628E1,2.5663797E1,1.6446246E2,8.819735E1,2.192974E1,1.5014844E2,3.5E1,1.9366735E3,7.439021E-1,1.5193359E3,7.283967E1,8.3E1,2.2064367E1,-7.485108E-1,5.9663998E1,2.3780893E2,3.798693E-2,-2.3931566E-1,9.585642E1,1.2705882E2,1.4185684E2,-1.0092926E-1,7.653347E1,8.420429E1,1.9335533E1,1.0316208E3,8.1479394E-1,4.787017E2,7.835137E0,2.874125E-2,5.4952013E-1,5.053792E-1,5.6744057E-1,8.85456E-1,9.287263E1,7.0567155E-1,1.670656E3,-8.85456E-1,6E0,1.83E2,2.4456251E1,-4.227775E-2,-8.263194E-2,-2.510112E-3,-7.311898E-2,-1.77119E-2,1.120483E-2,2.4774697E-2,4.6815216E-3,3.268499E-2,1.0071703E-2,7.200483E-3,3.2359924E-2,3.5593987E-2,-2.6851257E-2,-2.868262E-2,1.2411605E-2,-1.01411484E-1,-1.7298736E-2,-4.7651443E-4,1.792677E-2,2.9671384E-2,-8.57226E-2,2.3662908E-2,-1.1975936E-2,-2.0351125E-2,1.3592668E-3,-4.0511787E-2,-1.00318445E-2,-9.429734E-2,-6.5312125E-2,-6.333828E-2,-4.105184E-3,-4.4553082E-2,3.7659623E-3,-8.299912E-2,-1.755268E-2,-2.469852E-2,-9.2714414E-2,-9.106516E-3,5.46071E-3,-1.4404767E-3,6.091232E-4,5.3248936E-3,-7.461707E-4,-1.7356988E-2,6.6633294E-3,1.0825899E-2,-1.12274615E-2,2.093407E-2,-1.2853456E-2,-3.3000227E-2,-2.312503E-3],"split_indices":[13,3,13,3,13,11,5,8,14,0,3,9,14,5,6,5,7,0,15,7,0,3,15,6,12,5,14,5,3,12,2,8,13,0,0,9,15,0,6,0,3,15,1,5,14,5,1,0,14,14,14,8,3,14,5,8,10,11,2,0,0,0,0,0,0,0,0,0,0,0,0,0,0,0,0,0,0,0,0,0,0,0,0,0,0,0,0,0,0,0,0,0,0,0,0,0,0,0,0,0,0,0,0,0,0,0,0,0,0,0,0],"split_type":[0,0,0,0,0,0,0,0,0,0,0,0,0,0,0,0,0,0,0,0,0,0,0,0,0,0,0,0,0,0,0,0,0,0,0,0,0,0,0,0,0,0,0,0,0,0,0,0,0,0,0,0,0,0,0,0,0,0,0,0,0,0,0,0,0,0,0,0,0,0,0,0,0,0,0,0,0,0,0,0,0,0,0,0,0,0,0,0,0,0,0,0,0,0,0,0,0,0,0,0,0,0,0,0,0,0,0,0,0,0,0],"sum_hessian":[1.186346E5,4.7052056E3,1.139294E5,1.9280732E3,2.7771323E3,6.3604434E3,1.0756895E5,2.802403E2,1.647833E3,7.304758E2,2.0466565E3,7.8494194E1,6.281949E3,1.0673709E5,8.318594E2,2.2487938E2,5.536093E1,1.6432886E1,1.6314001E3,4.0845618E2,3.2201965E2,1.2519102E3,7.9474634E2,5.153624E1,2.6957952E1,3.1593655E3,3.122584E3,1.0232418E5,4.4129165E3,8.0079083E2,3.106856E1,9.440987E1,1.3046951E2,3.0105848E1,2.5255085E1,4.7135712E2,1.160043E3,1.0561032E2,3.0284586E2,8.061381E0,3.1395828E2,1.0582762E3,1.9363382E2,1.8993378E2,6.0481256E2,1.6368904E1,3.5167336E1,7.190196E0,1.9767757E1,3.0939336E3,6.543173E1,1.11547585E2,3.0110364E3,8.197993E4,2.0344248E4,1.6985636E3,2.7143528E3,6.487004E2,1.5209044E2,1.5559665E1,1.5508894E1,3.366386E1,6.074601E1,5.9946865E1,7.0522644E1,2.7008396E1,3.0974505E0,2.50219E2,2.2113812E2,1.0654202E3,9.462287E1,8.895542E1,1.6654898E1,1.6214763E2,1.4069821E2,7.9130044E0,3.0604526E2,8.9759784E2,1.6067848E2,1.8688649E2,6.7473264E0,1.2255237E2,6.738141E1,3.0289404E2,3.0191855E2,1.0706234E1,5.662671E0,1.3071635E1,2.20957E1,4.0991874E0,1.566857E1,5.7531876E1,3.0364019E3,3.387685E1,3.1554878E1,8.945923E1,2.2088358E1,2.396383E3,6.146534E2,3.356174E4,4.841819E4,8.1731616E3,1.2171087E4,2.1401349E2,1.4845502E3,3.7017242E2,2.3441804E3,5.766761E2,7.20243E1,3.8330246E1,1.1376019E2],"tree_param":{"num_deleted":"0","num_feature":"16","num_nodes":"111","size_leaf_vector":"1"}},{"base_weights":[-6.1717765E-5,-4.2872265E-4,8.6798556E-2,2.3807937E-2,-1.7498373E-3,1.7503427E-1,-6.4701796E-2,2.7763817E-2,-2.981431E-1,-7.40818E-3,6.74728E-3,2.0088492E-1,-1.3340695E-1,2.5033504E-1,-1.4522311E-1,1.3787687E-1,1.9371964E-2,-4.562701E-1,-4.8107423E-2,-2.0701382E-2,1.5285037E-3,4.385328E-2,-2.603058E-3,2.997246E-1,1.3299815E-1,-1.42424395E-2,-3.363362E-2,2.8994983E-2,1.3930886E-2,-2.2567783E-2,-3.3717847E-1,1.6145413E-1,-4.8068938E-1,1.5621948E-2,3.8521272E-1,-2.6620343E-2,-6.7636155E-2,-4.7312703E-2,1.04776695E-1,-3.4230717E-2,1.029958E-2,-1.4435581E-2,1.6780473E-2,5.3289976E-2,-3.7937585E-2,2.259847E-1,-3.7369686E-3,-3.8544883E-3,3.3073E-1,2.2254108E-1,-8.781048E-3,-2.6976317E-2,4.592941E-2,2.5090476E-2,-8.081053E-2,-2.660202E-1,-8.258318E-2,2.1018045E-2,-7.4548014E-3,-3.429003E-2,-5.7716098E-2,4.3639713E-3,-2.7495099E-3,4.6197522E-2,-1.1547604E-3,